~o
<STREAMINFO> 2 25 1
<VECSIZE> 26<NULLD><USER><DIAGC>
~h "average.mmf"
<BEGINHMM>
<NUMSTATES> 3
<STATE> 2
<STREAM> 1
<MEAN> 25
 2.205352e+00 4.542565e-01 2.292521e-01 1.462525e-01 1.059031e-01 6.461823e-02 5.639930e-02 5.430328e-02 4.402955e-02 3.115437e-02 2.862807e-02 3.600026e-02 2.449857e-02 2.599000e-02 2.900338e-02 2.385375e-02 2.324287e-02 2.525518e-02 2.737653e-02 2.420869e-02 3.418113e-02 3.644973e-02 4.436005e-02 5.450139e-02 2.892359e-02
<VARIANCE> 25
 1.220856e-01 6.972593e-03 1.507898e-03 6.132683e-04 2.658219e-04 5.648545e-05 1.839500e-04 2.361526e-04 5.005591e-05 3.086208e-05 1.812960e-05 1.803270e-05 9.240973e-06 2.070841e-05 9.691738e-06 1.866424e-05 3.357667e-05 1.977210e-05 4.614962e-05 2.047223e-05 9.190178e-05 1.840720e-04 3.016180e-04 6.515604e-04 6.069851e-05
<GCONST> -1.818814e+02
<STREAM> 2
<MEAN> 1
 4.160915e-02
<VARIANCE> 1
 8.685843e-05
<GCONST> -7.513353e+00
<TRANSP> 3
 0.000000e+00 1.000000e+00 0.000000e+00
 0.000000e+00 0.000000e+00 1.000000e+00
 0.000000e+00 0.000000e+00 0.000000e+00
<ENDHMM>
