~o
<STREAMINFO> 2 25 1
<VECSIZE> 26<NULLD><USER><DIAGC>
~v "varFloor1"
<VARIANCE> 25
 1.220856e-03 6.972593e-05 1.507897e-05 6.132683e-06 2.658219e-06 5.648544e-07 1.839500e-06 2.361526e-06 5.005591e-07 3.086208e-07 1.812960e-07 1.803269e-07 9.240973e-08 2.070841e-07 9.691738e-08 1.866424e-07 3.357667e-07 1.977210e-07 4.614961e-07 2.047223e-07 9.190177e-07 1.840720e-06 3.016180e-06 6.515604e-06 6.069851e-07
~v "varFloor2"
<VARIANCE> 1
 8.685843e-07
~h "xx^xx-pau+k=w@0_0/A:xx_0/B:xx-1@0-0&0-1/C:3+3/D:xx-0/E:xx+1/F:R-6/G:0-0/H:7=2@0=7/I:3_1/J:46+13-6"
<BEGINHMM>
<NUMSTATES> 3
<STATE> 2
<STREAM> 1
<MEAN> 25
 2.754336e+00 3.628084e-01 1.698716e-01 1.317049e-01 8.936942e-02 5.078405e-02 7.878756e-02 8.290490e-02 4.331158e-02 4.076675e-02 3.525760e-02 4.043877e-02 2.764393e-02 2.603830e-02 3.156877e-02 2.161874e-02 1.983914e-02 1.811525e-02 2.397176e-02 1.873778e-02 2.381168e-02 1.903630e-02 2.800103e-02 3.638468e-02 3.086128e-02
<VARIANCE> 25
 0.000000e+00 0.000000e+00 0.000000e+00 0.000000e+00 0.000000e+00 0.000000e+00 0.000000e+00 0.000000e+00 0.000000e+00 0.000000e+00 0.000000e+00 0.000000e+00 0.000000e+00 0.000000e+00 0.000000e+00 0.000000e+00 0.000000e+00 0.000000e+00 0.000000e+00 0.000000e+00 0.000000e+00 0.000000e+00 0.000000e+00 0.000000e+00 0.000000e+00
<GCONST> -2.500001e+11
<STREAM> 2
<MEAN> 1
 3.439118e-02
<VARIANCE> 1
 0.000000e+00
<TRANSP> 3
 0.000000e+00 1.000000e+00 0.000000e+00
 0.000000e+00 0.000000e+00 1.000000e+00
 0.000000e+00 0.000000e+00 0.000000e+00
<ENDHMM>
~h "xx^xx-pau+b=a@0_0/A:xx_0/B:xx-1@0-0&0-0/C:5+3/D:xx-0/E:xx+1/F:E-3/G:0-0/H:1=1@0=8/I:3_1/J:43+12-7"
<BEGINHMM>
<NUMSTATES> 3
<STATE> 2
<STREAM> 1
<MEAN> 25
 2.084935e+00 4.071048e-01 2.211541e-01 1.667212e-01 9.081943e-02 6.329974e-02 5.133844e-02 3.691920e-02 4.908974e-02 2.984671e-02 2.462072e-02 3.343662e-02 2.374502e-02 1.983168e-02 2.574236e-02 2.293927e-02 2.282741e-02 2.502359e-02 3.283560e-02 2.385434e-02 4.128900e-02 5.828208e-02 7.089620e-02 6.760122e-02 2.744269e-02
<VARIANCE> 25
 0.000000e+00 0.000000e+00 0.000000e+00 0.000000e+00 0.000000e+00 0.000000e+00 0.000000e+00 0.000000e+00 0.000000e+00 0.000000e+00 0.000000e+00 0.000000e+00 0.000000e+00 0.000000e+00 0.000000e+00 0.000000e+00 0.000000e+00 0.000000e+00 0.000000e+00 0.000000e+00 0.000000e+00 0.000000e+00 0.000000e+00 0.000000e+00 0.000000e+00
<GCONST> -2.500001e+11
<STREAM> 2
<MEAN> 1
 4.452721e-02
<VARIANCE> 1
 0.000000e+00
<TRANSP> 3
 0.000000e+00 1.000000e+00 0.000000e+00
 0.000000e+00 0.000000e+00 1.000000e+00
 0.000000e+00 0.000000e+00 0.000000e+00
<ENDHMM>
~h "xx^xx-pau+s=aw@0_0/A:xx_0/B:xx-1@0-0&0-0/C:0+3/D:xx-0/E:xx+1/F:E-3/G:0-0/H:1=1@0=6/I:3_1/J:42+14-5"
<BEGINHMM>
<NUMSTATES> 3
<STATE> 2
<STREAM> 1
<MEAN> 25
 1.658265e+00 5.729575e-01 2.068262e-01 1.461739e-01 1.349189e-01 7.812610e-02 4.060606e-02 7.351140e-02 4.465525e-02 3.847113e-02 2.603268e-02 3.029022e-02 2.545950e-02 2.864685e-02 2.748945e-02 2.492319e-02 1.791790e-02 2.438648e-02 1.407841e-02 1.734081e-02 1.604295e-02 1.602166e-02 1.404310e-02 2.452605e-02 1.592426e-02
<VARIANCE> 25
 0.000000e+00 0.000000e+00 0.000000e+00 0.000000e+00 0.000000e+00 0.000000e+00 0.000000e+00 0.000000e+00 0.000000e+00 0.000000e+00 0.000000e+00 0.000000e+00 0.000000e+00 0.000000e+00 0.000000e+00 0.000000e+00 0.000000e+00 0.000000e+00 0.000000e+00 0.000000e+00 0.000000e+00 0.000000e+00 0.000000e+00 0.000000e+00 0.000000e+00
<GCONST> -2.500001e+11
<STREAM> 2
<MEAN> 1
 3.746873e-02
<VARIANCE> 1
 0.000000e+00
<TRANSP> 3
 0.000000e+00 1.000000e+00 0.000000e+00
 0.000000e+00 0.000000e+00 1.000000e+00
 0.000000e+00 0.000000e+00 0.000000e+00
<ENDHMM>
~h "xx^xx-pau+e=mz@0_0/A:xx_0/B:xx-1@0-0&0-0/C:0+2/D:xx-0/E:xx+1/F:N-2/G:0-0/H:1=1@0=15/I:2_1/J:41+16-14"
<BEGINHMM>
<NUMSTATES> 3
<STATE> 2
<STREAM> 1
<MEAN> 25
 2.652158e+00 4.247391e-01 2.599141e-01 1.038619e-01 1.034990e-01 6.455383e-02 5.996623e-02 6.516027e-02 2.542793e-02 2.533824e-02 2.195631e-02 4.357938e-02 2.601685e-02 3.263114e-02 3.152038e-02 2.185877e-02 1.607474e-02 2.040425e-02 2.510380e-02 2.473924e-02 3.517351e-02 4.317917e-02 4.822761e-02 7.151422e-02 3.315134e-02
<VARIANCE> 25
 0.000000e+00 0.000000e+00 0.000000e+00 0.000000e+00 0.000000e+00 0.000000e+00 0.000000e+00 0.000000e+00 0.000000e+00 0.000000e+00 0.000000e+00 0.000000e+00 0.000000e+00 0.000000e+00 0.000000e+00 0.000000e+00 0.000000e+00 0.000000e+00 0.000000e+00 0.000000e+00 0.000000e+00 0.000000e+00 0.000000e+00 0.000000e+00 0.000000e+00
<GCONST> -2.500001e+11
<STREAM> 2
<MEAN> 1
 3.163622e-02
<VARIANCE> 1
 0.000000e+00
<TRANSP> 3
 0.000000e+00 1.000000e+00 0.000000e+00
 0.000000e+00 0.000000e+00 1.000000e+00
 0.000000e+00 0.000000e+00 0.000000e+00
<ENDHMM>
~h "xx^xx-pau+t=oo@0_0/A:xx_0/B:xx-1@0-0&0-1/C:0+3/D:xx-0/E:xx+1/F:CH-3/G:0-0/H:4=2@0=9/I:9_3/J:46+14-8"
<BEGINHMM>
<NUMSTATES> 3
<STATE> 2
<STREAM> 1
<MEAN> 25
 1.970350e+00 4.855573e-01 1.764871e-01 1.869151e-01 1.237928e-01 6.515205e-02 4.152984e-02 3.804526e-02 4.391535e-02 2.554078e-02 3.611530e-02 3.539216e-02 3.147446e-02 2.133628e-02 3.139646e-02 1.913038e-02 1.872828e-02 2.675912e-02 2.130673e-02 2.204789e-02 2.947840e-02 2.373872e-02 1.942974e-02 2.693675e-02 1.884289e-02
<VARIANCE> 25
 0.000000e+00 0.000000e+00 0.000000e+00 0.000000e+00 0.000000e+00 0.000000e+00 0.000000e+00 0.000000e+00 0.000000e+00 0.000000e+00 0.000000e+00 0.000000e+00 0.000000e+00 0.000000e+00 0.000000e+00 0.000000e+00 0.000000e+00 0.000000e+00 0.000000e+00 0.000000e+00 0.000000e+00 0.000000e+00 0.000000e+00 0.000000e+00 0.000000e+00
<GCONST> -2.500001e+11
<STREAM> 2
<MEAN> 1
 6.040273e-02
<VARIANCE> 1
 0.000000e+00
<TRANSP> 3
 0.000000e+00 1.000000e+00 0.000000e+00
 0.000000e+00 0.000000e+00 1.000000e+00
 0.000000e+00 0.000000e+00 0.000000e+00
<ENDHMM>
~h "xx^xx-pau+b=a@0_0/A:xx_0/B:xx-1@0-0&0-0/C:1+2/D:xx-0/E:xx+1/F:N-2/G:0-0/H:1=1@0=9/I:2_1/J:48+15-8"
<BEGINHMM>
<NUMSTATES> 3
<STATE> 2
<STREAM> 1
<MEAN> 25
 2.074382e+00 3.400616e-01 2.907725e-01 1.337568e-01 9.655862e-02 7.048405e-02 6.012586e-02 5.311955e-02 4.009426e-02 3.669837e-02 3.099867e-02 3.430654e-02 2.284852e-02 2.236498e-02 2.663592e-02 3.131086e-02 3.373718e-02 3.378044e-02 3.603921e-02 2.967007e-02 3.193373e-02 3.157930e-02 4.800687e-02 5.617943e-02 3.201524e-02
<VARIANCE> 25
 0.000000e+00 0.000000e+00 0.000000e+00 0.000000e+00 0.000000e+00 0.000000e+00 0.000000e+00 0.000000e+00 0.000000e+00 0.000000e+00 0.000000e+00 0.000000e+00 0.000000e+00 0.000000e+00 0.000000e+00 0.000000e+00 0.000000e+00 0.000000e+00 0.000000e+00 0.000000e+00 0.000000e+00 0.000000e+00 0.000000e+00 0.000000e+00 0.000000e+00
<GCONST> -2.500001e+11
<STREAM> 2
<MEAN> 1
 4.151627e-02
<VARIANCE> 1
 0.000000e+00
<TRANSP> 3
 0.000000e+00 1.000000e+00 0.000000e+00
 0.000000e+00 0.000000e+00 1.000000e+00
 0.000000e+00 0.000000e+00 0.000000e+00
<ENDHMM>
~h "xx^xx-pau+dd=aa@0_0/A:xx_0/B:xx-1@0-0&0-1/C:0+3/D:xx-0/E:xx+1/F:CH-3/G:0-0/H:4=2@0=5/I:5_2/J:43+12-4"
<BEGINHMM>
<NUMSTATES> 3
<STATE> 2
<STREAM> 1
<MEAN> 25
 2.284337e+00 4.683537e-01 2.089958e-01 1.578027e-01 1.290610e-01 6.396228e-02 5.638856e-02 4.777617e-02 5.174037e-02 2.895910e-02 2.882923e-02 3.901229e-02 2.203717e-02 2.509628e-02 2.842123e-02 2.332432e-02 2.071743e-02 2.424310e-02 2.534963e-02 2.338135e-02 4.225435e-02 5.215907e-02 5.488880e-02 6.680716e-02 3.634934e-02
<VARIANCE> 25
 0.000000e+00 0.000000e+00 0.000000e+00 0.000000e+00 0.000000e+00 0.000000e+00 0.000000e+00 0.000000e+00 0.000000e+00 0.000000e+00 0.000000e+00 0.000000e+00 0.000000e+00 0.000000e+00 0.000000e+00 0.000000e+00 0.000000e+00 0.000000e+00 0.000000e+00 0.000000e+00 0.000000e+00 0.000000e+00 0.000000e+00 0.000000e+00 0.000000e+00
<GCONST> -2.500001e+11
<STREAM> 2
<MEAN> 1
 4.269713e-02
<VARIANCE> 1
 0.000000e+00
<TRANSP> 3
 0.000000e+00 1.000000e+00 0.000000e+00
 0.000000e+00 0.000000e+00 1.000000e+00
 0.000000e+00 0.000000e+00 0.000000e+00
<ENDHMM>
~h "xx^xx-pau+m=oo@0_0/A:xx_0/B:xx-1@0-0&0-1/C:5+3/D:xx-0/E:xx+1/F:CH-5/G:0-0/H:6=2@0=6/I:6_1/J:46+10-5"
<BEGINHMM>
<NUMSTATES> 3
<STATE> 2
<STREAM> 1
<MEAN> 25
 1.753437e+00 6.227806e-01 2.234844e-01 1.241975e-01 1.054986e-01 6.540398e-02 3.770200e-02 4.195987e-02 4.496720e-02 2.400766e-02 2.823462e-02 3.560375e-02 2.279483e-02 2.208464e-02 2.945114e-02 2.420497e-02 2.793309e-02 2.857082e-02 3.407975e-02 2.295092e-02 3.631021e-02 3.153226e-02 5.662595e-02 4.267835e-02 2.420850e-02
<VARIANCE> 25
 0.000000e+00 0.000000e+00 0.000000e+00 0.000000e+00 0.000000e+00 0.000000e+00 0.000000e+00 0.000000e+00 0.000000e+00 0.000000e+00 0.000000e+00 0.000000e+00 0.000000e+00 0.000000e+00 0.000000e+00 0.000000e+00 0.000000e+00 0.000000e+00 0.000000e+00 0.000000e+00 0.000000e+00 0.000000e+00 0.000000e+00 0.000000e+00 0.000000e+00
<GCONST> -2.500001e+11
<STREAM> 2
<MEAN> 1
 3.750871e-02
<VARIANCE> 1
 0.000000e+00
<TRANSP> 3
 0.000000e+00 1.000000e+00 0.000000e+00
 0.000000e+00 0.000000e+00 1.000000e+00
 0.000000e+00 0.000000e+00 0.000000e+00
<ENDHMM>
~h "xx^xx-pau+a=iz@0_0/A:xx_0/B:xx-1@0-0&0-1/C:0+2/D:xx-0/E:xx+1/F:CH-2/G:0-0/H:3=2@0=7/I:11_4/J:44+16-6"
<BEGINHMM>
<NUMSTATES> 3
<STATE> 2
<STREAM> 1
<MEAN> 25
 2.550097e+00 4.412206e-01 2.602683e-01 1.322717e-01 9.593146e-02 5.378472e-02 5.983971e-02 6.367984e-02 5.093204e-02 3.307058e-02 2.845989e-02 3.862474e-02 2.118070e-02 3.395488e-02 3.434389e-02 3.154927e-02 3.242711e-02 2.982697e-02 3.586939e-02 3.358960e-02 5.242737e-02 4.702236e-02 4.448634e-02 3.855706e-02 2.666640e-02
<VARIANCE> 25
 0.000000e+00 0.000000e+00 0.000000e+00 0.000000e+00 0.000000e+00 0.000000e+00 0.000000e+00 0.000000e+00 0.000000e+00 0.000000e+00 0.000000e+00 0.000000e+00 0.000000e+00 0.000000e+00 0.000000e+00 0.000000e+00 0.000000e+00 0.000000e+00 0.000000e+00 0.000000e+00 0.000000e+00 0.000000e+00 0.000000e+00 0.000000e+00 0.000000e+00
<GCONST> -2.500001e+11
<STREAM> 2
<MEAN> 1
 5.555042e-02
<VARIANCE> 1
 0.000000e+00
<TRANSP> 3
 0.000000e+00 1.000000e+00 0.000000e+00
 0.000000e+00 0.000000e+00 1.000000e+00
 0.000000e+00 0.000000e+00 0.000000e+00
<ENDHMM>
~h "xx^xx-pau+kh=oo@0_0/A:xx_0/B:xx-1@0-0&0-2/C:0+3/D:xx-0/E:xx+1/F:CH-3/G:0-0/H:7=3@0=8/I:6_1/J:44+13-7"
<BEGINHMM>
<NUMSTATES> 3
<STATE> 2
<STREAM> 1
<MEAN> 25
 2.271217e+00 4.169811e-01 2.747469e-01 1.791194e-01 8.958153e-02 7.063151e-02 7.770870e-02 3.995639e-02 4.616176e-02 2.884441e-02 2.577570e-02 2.931814e-02 2.178474e-02 2.791495e-02 2.346421e-02 1.767769e-02 2.222645e-02 2.144182e-02 2.513103e-02 2.577489e-02 3.309014e-02 4.194640e-02 5.899486e-02 1.138290e-01 4.377396e-02
<VARIANCE> 25
 0.000000e+00 0.000000e+00 0.000000e+00 0.000000e+00 0.000000e+00 0.000000e+00 0.000000e+00 0.000000e+00 0.000000e+00 0.000000e+00 0.000000e+00 0.000000e+00 0.000000e+00 0.000000e+00 0.000000e+00 0.000000e+00 0.000000e+00 0.000000e+00 0.000000e+00 0.000000e+00 0.000000e+00 0.000000e+00 0.000000e+00 0.000000e+00 0.000000e+00
<GCONST> -2.500001e+11
<STREAM> 2
<MEAN> 1
 3.039291e-02
<VARIANCE> 1
 0.000000e+00
<TRANSP> 3
 0.000000e+00 1.000000e+00 0.000000e+00
 0.000000e+00 0.000000e+00 1.000000e+00
 0.000000e+00 0.000000e+00 0.000000e+00
<ENDHMM>
