~o
<STREAMINFO> 4 75 1 1 1
<MSDINFO> 4 0 1 1 1
<VECSIZE> 78<NULLD><USER><DIAGC>
~h "s"
<BEGINHMM>
<NUMSTATES> 7
<STATE> 2
<STREAM> 1
<MEAN> 75
 4.395199e+00 1.178667e+00 3.086185e-01 3.950290e-01 1.342646e-01 2.788885e-02 -1.521893e-01 9.720669e-02 -9.471489e-02 -7.295164e-02 -9.900963e-02 -9.832510e-02 -7.883372e-02 -1.662791e-02 -7.944360e-02 -4.611338e-05 -6.788424e-02 3.820463e-02 -3.856089e-02 -3.345593e-03 -1.824533e-02 6.988475e-02 4.398018e-02 1.120534e-01 -1.819217e-02 5.813849e-03 2.070913e-04 6.343997e-06 1.486685e-04 7.716645e-05 -1.132746e-05 -3.113229e-06 1.393835e-04 6.851293e-05 3.907184e-05 -2.135873e-05 1.460832e-05 1.999032e-05 7.659147e-05 -3.042284e-06 3.523372e-06 3.269353e-05 6.101988e-05 1.711952e-05 7.054602e-05 2.713431e-05 -3.205605e-05 -9.372910e-06 9.512568e-07 -3.596562e-05 6.589352e-13 -1.970628e-11 1.474882e-11 -2.373196e-11 -2.283108e-11 1.630350e-11 -9.348643e-12 1.299338e-11 -6.192962e-12 -1.929959e-11 -1.228296e-11 -8.885330e-12 -3.304972e-12 -1.736912e-11 1.147474e-11 2.776794e-11 1.720181e-11 6.328095e-12 -1.741288e-12 -1.633953e-11 -2.573966e-12 -1.649333e-11 -2.484392e-11 1.132545e-11 7.755359e-12
<VARIANCE> 75
 3.912040e+00 3.839127e-01 1.925434e-01 1.225065e-01 1.248663e-01 6.008734e-02 6.873022e-02 6.287262e-02 4.792490e-02 3.360390e-02 3.248614e-02 4.926122e-02 2.935765e-02 3.505359e-02 3.908950e-02 2.316170e-02 2.058512e-02 2.206581e-02 2.366413e-02 2.055081e-02 2.774176e-02 3.087435e-02 3.608270e-02 4.644377e-02 2.550491e-02 6.998457e-02 1.691661e-02 8.236901e-03 6.504088e-03 5.172843e-03 4.444615e-03 3.877720e-03 3.426671e-03 3.213726e-03 2.912444e-03 2.827277e-03 2.848758e-03 2.726055e-03 2.748307e-03 2.637491e-03 2.693987e-03 2.441931e-03 2.624191e-03 2.495596e-03 2.473834e-03 2.623120e-03 2.654379e-03 2.861951e-03 3.144396e-03 2.598434e-03 7.137344e-02 2.102069e-02 1.368432e-02 1.221014e-02 9.549917e-03 8.918639e-03 7.753154e-03 7.214108e-03 6.843039e-03 6.455274e-03 6.290145e-03 6.096181e-03 6.158647e-03 6.371845e-03 6.188016e-03 6.119409e-03 5.796862e-03 5.985465e-03 5.707704e-03 5.648656e-03 5.953502e-03 5.761059e-03 6.042657e-03 6.100103e-03 5.632650e-03
<GCONST> -1.950501e+02
<STREAM> 2
<NUMMIXES> 2
<MIXTURE> 1 5.000000e-01
<MEAN> 1
 5.517939e+00
<VARIANCE> 1
 4.829503e-02
<GCONST> -1.192549e+00
<MIXTURE> 2 5.000000e-01
<MEAN> 0
<VARIANCE> 0
<GCONST> 0.000000e+00
<STREAM> 3
<NUMMIXES> 2
<MIXTURE> 1 5.000000e-01
<MEAN> 1
 -3.238846e-03
<VARIANCE> 1
 8.023744e-04
<GCONST> -5.290058e+00
<MIXTURE> 2 5.000000e-01
<MEAN> 0
<VARIANCE> 0
<GCONST> 0.000000e+00
<STREAM> 4
<NUMMIXES> 2
<MIXTURE> 1 5.000000e-01
<MEAN> 1
 -3.135941e-05
<VARIANCE> 1
 1.944087e-03
<GCONST> -4.405086e+00
<MIXTURE> 2 5.000000e-01
<MEAN> 0
<VARIANCE> 0
<GCONST> 0.000000e+00
<STATE> 3
<STREAM> 1
<MEAN> 75
 4.395199e+00 1.178667e+00 3.086185e-01 3.950290e-01 1.342646e-01 2.788885e-02 -1.521893e-01 9.720669e-02 -9.471489e-02 -7.295164e-02 -9.900963e-02 -9.832510e-02 -7.883372e-02 -1.662791e-02 -7.944360e-02 -4.611338e-05 -6.788424e-02 3.820463e-02 -3.856089e-02 -3.345593e-03 -1.824533e-02 6.988475e-02 4.398018e-02 1.120534e-01 -1.819217e-02 5.813849e-03 2.070913e-04 6.343997e-06 1.486685e-04 7.716645e-05 -1.132746e-05 -3.113229e-06 1.393835e-04 6.851293e-05 3.907184e-05 -2.135873e-05 1.460832e-05 1.999032e-05 7.659147e-05 -3.042284e-06 3.523372e-06 3.269353e-05 6.101988e-05 1.711952e-05 7.054602e-05 2.713431e-05 -3.205605e-05 -9.372910e-06 9.512568e-07 -3.596562e-05 6.589352e-13 -1.970628e-11 1.474882e-11 -2.373196e-11 -2.283108e-11 1.630350e-11 -9.348643e-12 1.299338e-11 -6.192962e-12 -1.929959e-11 -1.228296e-11 -8.885330e-12 -3.304972e-12 -1.736912e-11 1.147474e-11 2.776794e-11 1.720181e-11 6.328095e-12 -1.741288e-12 -1.633953e-11 -2.573966e-12 -1.649333e-11 -2.484392e-11 1.132545e-11 7.755359e-12
<VARIANCE> 75
 3.912040e+00 3.839127e-01 1.925434e-01 1.225065e-01 1.248663e-01 6.008734e-02 6.873022e-02 6.287262e-02 4.792490e-02 3.360390e-02 3.248614e-02 4.926122e-02 2.935765e-02 3.505359e-02 3.908950e-02 2.316170e-02 2.058512e-02 2.206581e-02 2.366413e-02 2.055081e-02 2.774176e-02 3.087435e-02 3.608270e-02 4.644377e-02 2.550491e-02 6.998457e-02 1.691661e-02 8.236901e-03 6.504088e-03 5.172843e-03 4.444615e-03 3.877720e-03 3.426671e-03 3.213726e-03 2.912444e-03 2.827277e-03 2.848758e-03 2.726055e-03 2.748307e-03 2.637491e-03 2.693987e-03 2.441931e-03 2.624191e-03 2.495596e-03 2.473834e-03 2.623120e-03 2.654379e-03 2.861951e-03 3.144396e-03 2.598434e-03 7.137344e-02 2.102069e-02 1.368432e-02 1.221014e-02 9.549917e-03 8.918639e-03 7.753154e-03 7.214108e-03 6.843039e-03 6.455274e-03 6.290145e-03 6.096181e-03 6.158647e-03 6.371845e-03 6.188016e-03 6.119409e-03 5.796862e-03 5.985465e-03 5.707704e-03 5.648656e-03 5.953502e-03 5.761059e-03 6.042657e-03 6.100103e-03 5.632650e-03
<GCONST> -1.950501e+02
<STREAM> 2
<NUMMIXES> 2
<MIXTURE> 1 5.000000e-01
<MEAN> 1
 5.517939e+00
<VARIANCE> 1
 4.829503e-02
<GCONST> -1.192549e+00
<MIXTURE> 2 5.000000e-01
<MEAN> 0
<VARIANCE> 0
<GCONST> 0.000000e+00
<STREAM> 3
<NUMMIXES> 2
<MIXTURE> 1 5.000000e-01
<MEAN> 1
 -3.238846e-03
<VARIANCE> 1
 8.023744e-04
<GCONST> -5.290058e+00
<MIXTURE> 2 5.000000e-01
<MEAN> 0
<VARIANCE> 0
<GCONST> 0.000000e+00
<STREAM> 4
<NUMMIXES> 2
<MIXTURE> 1 5.000000e-01
<MEAN> 1
 -3.135941e-05
<VARIANCE> 1
 1.944087e-03
<GCONST> -4.405086e+00
<MIXTURE> 2 5.000000e-01
<MEAN> 0
<VARIANCE> 0
<GCONST> 0.000000e+00
<STATE> 4
<STREAM> 1
<MEAN> 75
 4.395199e+00 1.178667e+00 3.086185e-01 3.950290e-01 1.342646e-01 2.788885e-02 -1.521893e-01 9.720669e-02 -9.471489e-02 -7.295164e-02 -9.900963e-02 -9.832510e-02 -7.883372e-02 -1.662791e-02 -7.944360e-02 -4.611338e-05 -6.788424e-02 3.820463e-02 -3.856089e-02 -3.345593e-03 -1.824533e-02 6.988475e-02 4.398018e-02 1.120534e-01 -1.819217e-02 5.813849e-03 2.070913e-04 6.343997e-06 1.486685e-04 7.716645e-05 -1.132746e-05 -3.113229e-06 1.393835e-04 6.851293e-05 3.907184e-05 -2.135873e-05 1.460832e-05 1.999032e-05 7.659147e-05 -3.042284e-06 3.523372e-06 3.269353e-05 6.101988e-05 1.711952e-05 7.054602e-05 2.713431e-05 -3.205605e-05 -9.372910e-06 9.512568e-07 -3.596562e-05 6.589352e-13 -1.970628e-11 1.474882e-11 -2.373196e-11 -2.283108e-11 1.630350e-11 -9.348643e-12 1.299338e-11 -6.192962e-12 -1.929959e-11 -1.228296e-11 -8.885330e-12 -3.304972e-12 -1.736912e-11 1.147474e-11 2.776794e-11 1.720181e-11 6.328095e-12 -1.741288e-12 -1.633953e-11 -2.573966e-12 -1.649333e-11 -2.484392e-11 1.132545e-11 7.755359e-12
<VARIANCE> 75
 3.912040e+00 3.839127e-01 1.925434e-01 1.225065e-01 1.248663e-01 6.008734e-02 6.873022e-02 6.287262e-02 4.792490e-02 3.360390e-02 3.248614e-02 4.926122e-02 2.935765e-02 3.505359e-02 3.908950e-02 2.316170e-02 2.058512e-02 2.206581e-02 2.366413e-02 2.055081e-02 2.774176e-02 3.087435e-02 3.608270e-02 4.644377e-02 2.550491e-02 6.998457e-02 1.691661e-02 8.236901e-03 6.504088e-03 5.172843e-03 4.444615e-03 3.877720e-03 3.426671e-03 3.213726e-03 2.912444e-03 2.827277e-03 2.848758e-03 2.726055e-03 2.748307e-03 2.637491e-03 2.693987e-03 2.441931e-03 2.624191e-03 2.495596e-03 2.473834e-03 2.623120e-03 2.654379e-03 2.861951e-03 3.144396e-03 2.598434e-03 7.137344e-02 2.102069e-02 1.368432e-02 1.221014e-02 9.549917e-03 8.918639e-03 7.753154e-03 7.214108e-03 6.843039e-03 6.455274e-03 6.290145e-03 6.096181e-03 6.158647e-03 6.371845e-03 6.188016e-03 6.119409e-03 5.796862e-03 5.985465e-03 5.707704e-03 5.648656e-03 5.953502e-03 5.761059e-03 6.042657e-03 6.100103e-03 5.632650e-03
<GCONST> -1.950501e+02
<STREAM> 2
<NUMMIXES> 2
<MIXTURE> 1 5.000000e-01
<MEAN> 1
 5.517939e+00
<VARIANCE> 1
 4.829503e-02
<GCONST> -1.192549e+00
<MIXTURE> 2 5.000000e-01
<MEAN> 0
<VARIANCE> 0
<GCONST> 0.000000e+00
<STREAM> 3
<NUMMIXES> 2
<MIXTURE> 1 5.000000e-01
<MEAN> 1
 -3.238846e-03
<VARIANCE> 1
 8.023744e-04
<GCONST> -5.290058e+00
<MIXTURE> 2 5.000000e-01
<MEAN> 0
<VARIANCE> 0
<GCONST> 0.000000e+00
<STREAM> 4
<NUMMIXES> 2
<MIXTURE> 1 5.000000e-01
<MEAN> 1
 -3.135941e-05
<VARIANCE> 1
 1.944087e-03
<GCONST> -4.405086e+00
<MIXTURE> 2 5.000000e-01
<MEAN> 0
<VARIANCE> 0
<GCONST> 0.000000e+00
<STATE> 5
<STREAM> 1
<MEAN> 75
 4.395199e+00 1.178667e+00 3.086185e-01 3.950290e-01 1.342646e-01 2.788885e-02 -1.521893e-01 9.720669e-02 -9.471489e-02 -7.295164e-02 -9.900963e-02 -9.832510e-02 -7.883372e-02 -1.662791e-02 -7.944360e-02 -4.611338e-05 -6.788424e-02 3.820463e-02 -3.856089e-02 -3.345593e-03 -1.824533e-02 6.988475e-02 4.398018e-02 1.120534e-01 -1.819217e-02 5.813849e-03 2.070913e-04 6.343997e-06 1.486685e-04 7.716645e-05 -1.132746e-05 -3.113229e-06 1.393835e-04 6.851293e-05 3.907184e-05 -2.135873e-05 1.460832e-05 1.999032e-05 7.659147e-05 -3.042284e-06 3.523372e-06 3.269353e-05 6.101988e-05 1.711952e-05 7.054602e-05 2.713431e-05 -3.205605e-05 -9.372910e-06 9.512568e-07 -3.596562e-05 6.589352e-13 -1.970628e-11 1.474882e-11 -2.373196e-11 -2.283108e-11 1.630350e-11 -9.348643e-12 1.299338e-11 -6.192962e-12 -1.929959e-11 -1.228296e-11 -8.885330e-12 -3.304972e-12 -1.736912e-11 1.147474e-11 2.776794e-11 1.720181e-11 6.328095e-12 -1.741288e-12 -1.633953e-11 -2.573966e-12 -1.649333e-11 -2.484392e-11 1.132545e-11 7.755359e-12
<VARIANCE> 75
 3.912040e+00 3.839127e-01 1.925434e-01 1.225065e-01 1.248663e-01 6.008734e-02 6.873022e-02 6.287262e-02 4.792490e-02 3.360390e-02 3.248614e-02 4.926122e-02 2.935765e-02 3.505359e-02 3.908950e-02 2.316170e-02 2.058512e-02 2.206581e-02 2.366413e-02 2.055081e-02 2.774176e-02 3.087435e-02 3.608270e-02 4.644377e-02 2.550491e-02 6.998457e-02 1.691661e-02 8.236901e-03 6.504088e-03 5.172843e-03 4.444615e-03 3.877720e-03 3.426671e-03 3.213726e-03 2.912444e-03 2.827277e-03 2.848758e-03 2.726055e-03 2.748307e-03 2.637491e-03 2.693987e-03 2.441931e-03 2.624191e-03 2.495596e-03 2.473834e-03 2.623120e-03 2.654379e-03 2.861951e-03 3.144396e-03 2.598434e-03 7.137344e-02 2.102069e-02 1.368432e-02 1.221014e-02 9.549917e-03 8.918639e-03 7.753154e-03 7.214108e-03 6.843039e-03 6.455274e-03 6.290145e-03 6.096181e-03 6.158647e-03 6.371845e-03 6.188016e-03 6.119409e-03 5.796862e-03 5.985465e-03 5.707704e-03 5.648656e-03 5.953502e-03 5.761059e-03 6.042657e-03 6.100103e-03 5.632650e-03
<GCONST> -1.950501e+02
<STREAM> 2
<NUMMIXES> 2
<MIXTURE> 1 5.000000e-01
<MEAN> 1
 5.517939e+00
<VARIANCE> 1
 4.829503e-02
<GCONST> -1.192549e+00
<MIXTURE> 2 5.000000e-01
<MEAN> 0
<VARIANCE> 0
<GCONST> 0.000000e+00
<STREAM> 3
<NUMMIXES> 2
<MIXTURE> 1 5.000000e-01
<MEAN> 1
 -3.238846e-03
<VARIANCE> 1
 8.023744e-04
<GCONST> -5.290058e+00
<MIXTURE> 2 5.000000e-01
<MEAN> 0
<VARIANCE> 0
<GCONST> 0.000000e+00
<STREAM> 4
<NUMMIXES> 2
<MIXTURE> 1 5.000000e-01
<MEAN> 1
 -3.135941e-05
<VARIANCE> 1
 1.944087e-03
<GCONST> -4.405086e+00
<MIXTURE> 2 5.000000e-01
<MEAN> 0
<VARIANCE> 0
<GCONST> 0.000000e+00
<STATE> 6
<STREAM> 1
<MEAN> 75
 4.395199e+00 1.178667e+00 3.086185e-01 3.950290e-01 1.342646e-01 2.788885e-02 -1.521893e-01 9.720669e-02 -9.471489e-02 -7.295164e-02 -9.900963e-02 -9.832510e-02 -7.883372e-02 -1.662791e-02 -7.944360e-02 -4.611338e-05 -6.788424e-02 3.820463e-02 -3.856089e-02 -3.345593e-03 -1.824533e-02 6.988475e-02 4.398018e-02 1.120534e-01 -1.819217e-02 5.813849e-03 2.070913e-04 6.343997e-06 1.486685e-04 7.716645e-05 -1.132746e-05 -3.113229e-06 1.393835e-04 6.851293e-05 3.907184e-05 -2.135873e-05 1.460832e-05 1.999032e-05 7.659147e-05 -3.042284e-06 3.523372e-06 3.269353e-05 6.101988e-05 1.711952e-05 7.054602e-05 2.713431e-05 -3.205605e-05 -9.372910e-06 9.512568e-07 -3.596562e-05 6.589352e-13 -1.970628e-11 1.474882e-11 -2.373196e-11 -2.283108e-11 1.630350e-11 -9.348643e-12 1.299338e-11 -6.192962e-12 -1.929959e-11 -1.228296e-11 -8.885330e-12 -3.304972e-12 -1.736912e-11 1.147474e-11 2.776794e-11 1.720181e-11 6.328095e-12 -1.741288e-12 -1.633953e-11 -2.573966e-12 -1.649333e-11 -2.484392e-11 1.132545e-11 7.755359e-12
<VARIANCE> 75
 3.912040e+00 3.839127e-01 1.925434e-01 1.225065e-01 1.248663e-01 6.008734e-02 6.873022e-02 6.287262e-02 4.792490e-02 3.360390e-02 3.248614e-02 4.926122e-02 2.935765e-02 3.505359e-02 3.908950e-02 2.316170e-02 2.058512e-02 2.206581e-02 2.366413e-02 2.055081e-02 2.774176e-02 3.087435e-02 3.608270e-02 4.644377e-02 2.550491e-02 6.998457e-02 1.691661e-02 8.236901e-03 6.504088e-03 5.172843e-03 4.444615e-03 3.877720e-03 3.426671e-03 3.213726e-03 2.912444e-03 2.827277e-03 2.848758e-03 2.726055e-03 2.748307e-03 2.637491e-03 2.693987e-03 2.441931e-03 2.624191e-03 2.495596e-03 2.473834e-03 2.623120e-03 2.654379e-03 2.861951e-03 3.144396e-03 2.598434e-03 7.137344e-02 2.102069e-02 1.368432e-02 1.221014e-02 9.549917e-03 8.918639e-03 7.753154e-03 7.214108e-03 6.843039e-03 6.455274e-03 6.290145e-03 6.096181e-03 6.158647e-03 6.371845e-03 6.188016e-03 6.119409e-03 5.796862e-03 5.985465e-03 5.707704e-03 5.648656e-03 5.953502e-03 5.761059e-03 6.042657e-03 6.100103e-03 5.632650e-03
<GCONST> -1.950501e+02
<STREAM> 2
<NUMMIXES> 2
<MIXTURE> 1 5.000000e-01
<MEAN> 1
 5.517939e+00
<VARIANCE> 1
 4.829503e-02
<GCONST> -1.192549e+00
<MIXTURE> 2 5.000000e-01
<MEAN> 0
<VARIANCE> 0
<GCONST> 0.000000e+00
<STREAM> 3
<NUMMIXES> 2
<MIXTURE> 1 5.000000e-01
<MEAN> 1
 -3.238846e-03
<VARIANCE> 1
 8.023744e-04
<GCONST> -5.290058e+00
<MIXTURE> 2 5.000000e-01
<MEAN> 0
<VARIANCE> 0
<GCONST> 0.000000e+00
<STREAM> 4
<NUMMIXES> 2
<MIXTURE> 1 5.000000e-01
<MEAN> 1
 -3.135941e-05
<VARIANCE> 1
 1.944087e-03
<GCONST> -4.405086e+00
<MIXTURE> 2 5.000000e-01
<MEAN> 0
<VARIANCE> 0
<GCONST> 0.000000e+00
<TRANSP> 7
 0.000000e+00 1.000000e+00 0.000000e+00 0.000000e+00 0.000000e+00 0.000000e+00 0.000000e+00
 0.000000e+00 6.000000e-01 4.000000e-01 0.000000e+00 0.000000e+00 0.000000e+00 0.000000e+00
 0.000000e+00 0.000000e+00 6.000000e-01 4.000000e-01 0.000000e+00 0.000000e+00 0.000000e+00
 0.000000e+00 0.000000e+00 0.000000e+00 6.000000e-01 4.000000e-01 0.000000e+00 0.000000e+00
 0.000000e+00 0.000000e+00 0.000000e+00 0.000000e+00 6.000000e-01 4.000000e-01 0.000000e+00
 0.000000e+00 0.000000e+00 0.000000e+00 0.000000e+00 0.000000e+00 6.000000e-01 4.000000e-01
 0.000000e+00 0.000000e+00 0.000000e+00 0.000000e+00 0.000000e+00 0.000000e+00 0.000000e+00
<ENDHMM>
