~o
<STREAMINFO> 4 75 1 1 1
<MSDINFO> 4 0 1 1 1
<VECSIZE> 78<NULLD><USER><DIAGC>
~v "varFloor1"
<VARIANCE> 75
 3.912040e-02 3.839127e-03 1.925434e-03 1.225065e-03 1.248662e-03 6.008734e-04 6.873022e-04 6.287261e-04 4.792490e-04 3.360390e-04 3.248614e-04 4.926121e-04 2.935765e-04 3.505359e-04 3.908950e-04 2.316170e-04 2.058512e-04 2.206581e-04 2.366413e-04 2.055081e-04 2.774176e-04 3.087435e-04 3.608270e-04 4.644377e-04 2.550491e-04 6.998457e-04 1.691661e-04 8.236901e-05 6.504088e-05 5.172842e-05 4.444615e-05 3.877720e-05 3.426671e-05 3.213725e-05 2.912444e-05 2.827277e-05 2.848758e-05 2.726055e-05 2.748307e-05 2.637491e-05 2.693987e-05 2.441931e-05 2.624191e-05 2.495596e-05 2.473833e-05 2.623120e-05 2.654379e-05 2.861951e-05 3.144396e-05 2.598434e-05 7.137344e-04 2.102069e-04 1.368432e-04 1.221014e-04 9.549916e-05 8.918639e-05 7.753154e-05 7.214108e-05 6.843039e-05 6.455274e-05 6.290145e-05 6.096181e-05 6.158646e-05 6.371845e-05 6.188016e-05 6.119409e-05 5.796862e-05 5.985465e-05 5.707704e-05 5.648656e-05 5.953502e-05 5.761058e-05 6.042657e-05 6.100103e-05 5.632649e-05
~v "varFloor2"
<VARIANCE> 1
 4.829503e-04
~v "varFloor3"
<VARIANCE> 1
 8.023744e-06
~v "varFloor4"
<VARIANCE> 1
 1.944087e-05
~h "a"
<BEGINHMM>
<NUMSTATES> 7
<STATE> 2
<STREAM> 1
<MEAN> 75
 4.498632e+00 1.435930e+00 3.852876e-01 4.313720e-01 4.971632e-02 -6.558675e-02 -2.900526e-01 8.939768e-02 -9.619565e-02 -9.883537e-02 -1.691903e-01 -1.269003e-01 -1.454725e-01 -4.908819e-02 -3.463017e-02 1.022873e-01 3.542061e-02 1.144919e-01 -5.584442e-02 -7.209475e-02 -1.292806e-01 3.029061e-02 -1.408124e-02 7.368479e-02 -6.913934e-02 -1.656536e-01 3.899277e-02 2.567545e-02 8.184768e-03 7.440215e-03 5.570549e-03 1.263054e-02 -1.577907e-02 1.901629e-02 6.565793e-03 5.065581e-03 1.200190e-02 -1.177985e-02 -2.686069e-03 3.110674e-04 9.764444e-04 5.470879e-03 4.384514e-03 4.045022e-03 -8.110473e-03 -5.132944e-04 -2.110302e-03 -7.242069e-03 -2.498833e-02 2.557359e-03 -7.591411e-03 3.240358e-03 -1.961218e-02 -1.738415e-02 1.470482e-02 -1.114825e-02 -8.114303e-03 -1.445268e-03 6.466374e-03 2.492155e-02 6.789130e-03 -3.050649e-02 2.284622e-02 -1.843186e-03 -7.177911e-03 -2.306393e-02 -8.508308e-03 -1.384760e-03 1.467822e-02 1.472567e-02 -2.598128e-03 6.935460e-03 -7.166392e-04 -1.069864e-02 1.883292e-02
<VARIANCE> 75
 2.080011e+00 2.631547e-01 1.123881e-01 7.721054e-02 8.980037e-02 4.241143e-02 5.635443e-02 3.587191e-02 5.593687e-02 2.787336e-02 1.920914e-02 3.534257e-02 2.495491e-02 2.669384e-02 3.189230e-02 3.241953e-02 3.447506e-02 3.921135e-02 1.951215e-02 1.890468e-02 2.916781e-02 1.788141e-02 1.556742e-02 1.613580e-02 7.485411e-03 9.137342e-02 2.646825e-02 7.652816e-03 7.655649e-03 3.957733e-03 4.900455e-03 5.389445e-03 3.795431e-03 2.912550e-03 3.878564e-03 1.617765e-03 3.247244e-03 2.345638e-03 2.816194e-03 3.590909e-03 3.681075e-03 3.823302e-03 2.909579e-03 2.757664e-03 2.137917e-03 2.623874e-03 2.530998e-03 1.427699e-03 2.648261e-03 2.061543e-03 3.945595e-02 2.137825e-02 1.375334e-02 1.675784e-02 7.654091e-03 1.096617e-02 1.315496e-02 1.000119e-02 8.114054e-03 7.599311e-03 3.951081e-03 7.622087e-03 6.252857e-03 7.520799e-03 8.491823e-03 1.013086e-02 8.807790e-03 9.111682e-03 3.898973e-03 5.291171e-03 1.093247e-02 6.546257e-03 6.460843e-03 5.183221e-03 1.213803e-02
<GCONST> -1.983351e+02
<STREAM> 2
<NUMMIXES> 2
<MIXTURE> 1 7.096134e-01
<MEAN> 1
 5.605860e+00
<VARIANCE> 1
 1.023471e-01
<GCONST> -4.415085e-01
<MIXTURE> 2 2.903865e-01
<MEAN> 0
<VARIANCE> 0
<GCONST> 0.000000e+00
<STREAM> 3
<NUMMIXES> 2
<MIXTURE> 1 6.570674e-01
<MEAN> 1
 2.399397e-02
<VARIANCE> 1
 9.591319e-03
<GCONST> -2.809020e+00
<MIXTURE> 2 3.429327e-01
<MEAN> 0
<VARIANCE> 0
<GCONST> 0.000000e+00
<STREAM> 4
<NUMMIXES> 2
<MIXTURE> 1 6.570674e-01
<MEAN> 1
 1.003756e-02
<VARIANCE> 1
 4.447121e-02
<GCONST> -1.275036e+00
<MIXTURE> 2 3.429327e-01
<MEAN> 0
<VARIANCE> 0
<GCONST> 0.000000e+00
<STATE> 3
<STREAM> 1
<MEAN> 75
 4.275295e+00 1.535660e+00 3.558164e-01 4.955346e-01 1.164548e-01 -5.114593e-02 -2.330115e-01 1.203561e-01 -7.434919e-02 -1.303601e-02 -7.838951e-02 -4.354426e-02 -7.112600e-02 -4.769797e-02 -7.905983e-02 6.424647e-02 1.016205e-03 6.582179e-02 -2.848874e-02 -5.201118e-02 -9.970672e-02 2.967598e-02 -5.268468e-02 2.696820e-02 -3.209219e-02 -1.301295e-01 5.327375e-02 1.064850e-02 1.144028e-02 3.345938e-02 5.798606e-03 6.998497e-04 6.815955e-03 1.349327e-02 1.638547e-02 2.160903e-02 -2.829815e-03 2.681619e-02 8.083174e-03 2.120576e-03 -9.303886e-03 1.986606e-03 -1.566808e-02 9.308507e-04 -4.445436e-04 -2.049875e-04 6.754102e-03 8.437214e-04 -2.052482e-03 1.237059e-02 1.059717e-02 -8.529154e-03 4.963491e-03 -5.578152e-03 8.486701e-03 1.418678e-03 -1.050461e-03 6.801090e-03 4.558520e-03 3.397809e-03 7.907433e-03 -2.410563e-02 -8.593353e-03 -5.263833e-03 -1.826635e-03 8.459845e-03 -1.058731e-02 -6.157910e-03 1.045978e-02 2.825549e-03 1.440207e-02 1.579713e-03 4.367190e-03 2.072588e-02 3.817028e-03
<VARIANCE> 75
 1.742960e+00 2.525255e-01 1.267192e-01 8.729698e-02 6.370645e-02 4.513838e-02 3.725685e-02 4.254358e-02 3.635782e-02 3.414429e-02 1.687343e-02 1.635531e-02 1.512197e-02 3.269081e-02 3.835383e-02 3.857251e-02 2.611474e-02 3.544851e-02 2.675443e-02 1.939393e-02 1.698952e-02 1.785224e-02 1.399991e-02 1.754183e-02 7.685740e-03 5.388284e-02 2.140555e-02 5.969886e-03 8.572147e-03 8.708111e-03 5.823837e-03 3.783730e-03 2.438852e-03 5.112749e-03 3.853274e-03 2.245512e-03 3.653853e-03 2.619300e-03 4.883780e-03 3.147468e-03 3.343147e-03 2.697933e-03 2.305497e-03 1.723953e-03 3.087842e-03 2.020125e-03 2.418025e-03 2.486506e-03 1.735452e-03 1.651250e-03 2.333906e-02 1.869454e-02 9.668392e-03 1.213357e-02 9.720635e-03 1.056255e-02 6.706223e-03 7.030616e-03 8.503539e-03 9.068141e-03 4.050350e-03 5.364463e-03 4.521589e-03 9.415165e-03 8.322577e-03 6.079369e-03 6.007296e-03 6.878105e-03 5.733000e-03 7.152178e-03 4.341117e-03 6.485148e-03 6.127883e-03 7.026495e-03 7.882907e-03
<GCONST> -2.048171e+02
<STREAM> 2
<NUMMIXES> 2
<MIXTURE> 1 4.291596e-01
<MEAN> 1
 5.441978e+00
<VARIANCE> 1
 2.919208e-02
<GCONST> -1.695981e+00
<MIXTURE> 2 5.708404e-01
<MEAN> 0
<VARIANCE> 0
<GCONST> 0.000000e+00
<STREAM> 3
<NUMMIXES> 2
<MIXTURE> 1 3.678215e-01
<MEAN> 1
 -3.197099e-03
<VARIANCE> 1
 1.139612e-03
<GCONST> -4.939190e+00
<MIXTURE> 2 6.321787e-01
<MEAN> 0
<VARIANCE> 0
<GCONST> 0.000000e+00
<STREAM> 4
<NUMMIXES> 2
<MIXTURE> 1 3.678212e-01
<MEAN> 1
 -6.524533e-04
<VARIANCE> 1
 2.405870e-03
<GCONST> -4.191967e+00
<MIXTURE> 2 6.321787e-01
<MEAN> 0
<VARIANCE> 0
<GCONST> 0.000000e+00
<STATE> 4
<STREAM> 1
<MEAN> 75
 4.200886e+00 1.061030e+00 4.438445e-01 5.019686e-01 1.934982e-01 -4.180283e-03 -2.574739e-01 1.738161e-01 -3.805638e-02 -8.165029e-02 -8.329906e-02 -5.576937e-02 -6.169700e-02 -2.454373e-02 -4.817464e-02 7.077885e-02 -4.858785e-02 9.517588e-02 -2.303782e-02 7.925548e-04 -5.392391e-02 2.843638e-02 -1.965284e-02 4.136290e-02 -4.913641e-02 1.796768e-01 -5.533089e-02 8.400600e-04 -1.157213e-02 -2.020801e-02 -7.778447e-03 -1.400700e-02 1.602501e-02 -7.497675e-03 -9.497829e-03 -1.619075e-02 -2.441975e-02 -5.176402e-03 -1.354678e-02 -1.070488e-02 -2.088499e-03 -1.986747e-02 9.551027e-03 -3.346752e-03 5.076809e-03 1.239724e-02 -6.203247e-03 -8.455856e-03 1.184304e-02 2.242245e-03 1.161424e-01 4.753388e-03 5.842885e-03 -2.210021e-03 -3.073492e-02 -1.478236e-02 4.601851e-03 -1.205827e-02 -1.641507e-02 -7.038052e-03 -2.111312e-02 1.157426e-02 -7.588697e-04 9.443662e-03 -3.460884e-03 2.721092e-03 6.381594e-03 1.060621e-02 -1.050690e-02 -4.850712e-03 2.474873e-03 -6.794741e-03 3.055071e-03 2.316666e-02 -6.862952e-03
<VARIANCE> 75
 1.396160e+00 5.049120e-01 1.232025e-01 5.810174e-02 6.230129e-02 3.264913e-02 4.288648e-02 3.490440e-02 4.568228e-02 3.089623e-02 1.175806e-02 1.860597e-02 1.001978e-02 2.554788e-02 3.180045e-02 4.324026e-02 3.205061e-02 3.877212e-02 1.619262e-02 1.827496e-02 1.423376e-02 1.273626e-02 1.802538e-02 1.246270e-02 6.775672e-03 1.168635e-01 6.912386e-02 1.082089e-02 1.255450e-02 9.795364e-03 9.759676e-03 6.320626e-03 5.573915e-03 9.817820e-03 6.758561e-03 3.377289e-03 4.228214e-03 3.175652e-03 5.845577e-03 4.481644e-03 3.275720e-03 3.400269e-03 4.064868e-03 5.669099e-03 3.219528e-03 2.202445e-03 2.510781e-03 3.512902e-03 3.650786e-03 3.422898e-03 1.027202e-01 9.742928e-02 1.387097e-02 2.412317e-02 1.729275e-02 1.631221e-02 1.517590e-02 1.205066e-02 1.817593e-02 1.556309e-02 1.199730e-02 8.918661e-03 9.074686e-03 1.342811e-02 8.729059e-03 6.332989e-03 9.140339e-03 1.501707e-02 1.025040e-02 9.595829e-03 8.238285e-03 7.102857e-03 8.812555e-03 8.010639e-03 6.155957e-03
<GCONST> -1.820381e+02
<STREAM> 2
<NUMMIXES> 2
<MIXTURE> 1 2.941807e-01
<MEAN> 1
 5.519485e+00
<VARIANCE> 1
 4.163777e-02
<GCONST> -1.340870e+00
<MIXTURE> 2 7.058194e-01
<MEAN> 0
<VARIANCE> 0
<GCONST> 0.000000e+00
<STREAM> 3
<NUMMIXES> 2
<MIXTURE> 1 1.960343e-01
<MEAN> 1
 1.617737e-02
<VARIANCE> 1
 6.562212e-04
<GCONST> -5.491136e+00
<MIXTURE> 2 8.039657e-01
<MEAN> 0
<VARIANCE> 0
<GCONST> 0.000000e+00
<STREAM> 4
<NUMMIXES> 2
<MIXTURE> 1 1.960344e-01
<MEAN> 1
 2.786919e-02
<VARIANCE> 1
 3.353223e-03
<GCONST> -3.859957e+00
<MIXTURE> 2 8.039656e-01
<MEAN> 0
<VARIANCE> 0
<GCONST> 0.000000e+00
<STATE> 5
<STREAM> 1
<MEAN> 75
 4.566732e+00 1.466374e+00 5.159380e-01 4.211987e-01 1.115669e-01 -2.385406e-02 -2.345905e-01 1.190032e-01 -1.246883e-01 -1.105422e-01 -9.903570e-02 -1.329876e-01 -9.275956e-02 -8.006622e-02 -1.292597e-01 1.186461e-02 -8.958236e-02 3.469565e-02 -6.849699e-02 -7.101730e-02 -5.749302e-02 1.588827e-02 -4.777676e-02 6.175417e-02 -5.722457e-02 1.303142e-01 6.691781e-02 -1.124901e-02 -3.019191e-02 -2.676454e-02 -3.054633e-02 6.192210e-03 -2.595101e-02 -7.631342e-03 1.100274e-03 -5.483387e-03 -2.333908e-02 2.637573e-04 -9.421973e-03 -1.603838e-02 -1.653059e-02 -7.086231e-03 2.007484e-03 -1.031399e-02 -1.507480e-02 -6.591675e-03 -3.646421e-03 6.469782e-03 4.025826e-02 6.258974e-03 3.868902e-03 -5.591732e-02 -4.166041e-02 -1.213476e-02 -1.150524e-02 3.821615e-03 -6.565687e-03 8.233840e-03 5.779148e-03 -7.255984e-03 5.604489e-03 3.016984e-02 8.314627e-03 2.380721e-03 1.566480e-02 -1.801439e-02 -5.259085e-03 -4.714737e-03 -2.895262e-03 -2.155718e-02 -1.738364e-02 6.515627e-03 1.098000e-02 -3.161774e-03 -8.187378e-03
<VARIANCE> 75
 2.242939e+00 2.403776e-01 2.180736e-01 7.715817e-02 7.475032e-02 4.401502e-02 7.741593e-02 3.307879e-02 4.369828e-02 4.043175e-02 1.679425e-02 2.399857e-02 1.688501e-02 2.308194e-02 2.653325e-02 2.112937e-02 1.937695e-02 2.450386e-02 1.603114e-02 2.568169e-02 1.974893e-02 1.844599e-02 2.024461e-02 2.283556e-02 2.355203e-02 1.092891e-01 2.074958e-02 1.226604e-02 1.306987e-02 8.511770e-03 7.153457e-03 8.541017e-03 3.226069e-03 5.852916e-03 3.853171e-03 2.497112e-03 4.766182e-03 2.814419e-03 5.102681e-03 2.359752e-03 2.897107e-03 3.272847e-03 4.710563e-03 3.560851e-03 2.662537e-03 4.368616e-03 1.769366e-03 3.736149e-03 5.202597e-03 3.508701e-03 4.075620e-02 2.338201e-02 1.698555e-02 9.951649e-03 7.540067e-03 1.124220e-02 9.869893e-03 4.672065e-03 8.420675e-03 1.013942e-02 6.779468e-03 5.463547e-03 9.244072e-03 7.085908e-03 3.761424e-03 4.606177e-03 4.281925e-03 6.559173e-03 6.910483e-03 3.858741e-03 8.000406e-03 4.501597e-03 1.205449e-02 4.797307e-03 7.010892e-03
<GCONST> -1.949966e+02
<STREAM> 2
<NUMMIXES> 2
<MIXTURE> 1 6.560507e-01
<MEAN> 1
 5.492495e+00
<VARIANCE> 1
 1.903030e-02
<GCONST> -2.123846e+00
<MIXTURE> 2 3.439492e-01
<MEAN> 0
<VARIANCE> 0
<GCONST> 0.000000e+00
<STREAM> 3
<NUMMIXES> 2
<MIXTURE> 1 5.625562e-01
<MEAN> 1
 1.615725e-02
<VARIANCE> 1
 6.200696e-04
<GCONST> -5.547802e+00
<MIXTURE> 2 4.374438e-01
<MEAN> 0
<VARIANCE> 0
<GCONST> 0.000000e+00
<STREAM> 4
<NUMMIXES> 2
<MIXTURE> 1 5.625556e-01
<MEAN> 1
 -1.743416e-02
<VARIANCE> 1
 1.173235e-03
<GCONST> -4.910113e+00
<MIXTURE> 2 4.374443e-01
<MEAN> 0
<VARIANCE> 0
<GCONST> 0.000000e+00
<STATE> 6
<STREAM> 1
<MEAN> 75
 5.894556e+00 1.203132e+00 2.474623e-01 3.425895e-01 -1.149471e-01 -1.907665e-01 -4.609211e-01 1.736706e-01 -2.413505e-01 -2.407938e-01 -7.246251e-02 -2.152125e-01 -6.044541e-02 -1.303985e-01 -2.104246e-01 -2.427519e-02 -1.814429e-01 4.568342e-02 -1.543681e-01 -5.072864e-02 -7.334211e-02 9.824315e-02 1.315099e-01 3.642384e-01 8.704595e-02 8.783535e-02 -1.197033e-02 -4.146951e-02 -1.224590e-02 -7.440732e-03 -9.404696e-03 -9.812290e-03 3.408876e-03 2.083966e-03 7.643057e-03 4.101929e-03 -1.136037e-03 3.574207e-04 1.091792e-02 -7.774721e-03 -5.309766e-03 -3.414626e-03 -5.985101e-03 -2.154013e-03 -1.341631e-02 -4.924261e-03 2.271110e-03 7.673302e-05 1.362187e-02 1.899485e-03 -3.843156e-02 5.555550e-03 8.403912e-03 1.817135e-02 1.845679e-02 1.026818e-02 -2.831044e-03 3.935862e-04 -5.897357e-04 2.816058e-03 3.650315e-03 -2.883797e-03 -8.586573e-03 2.963697e-03 -1.521870e-03 1.161719e-02 -3.719050e-03 1.078045e-03 9.217615e-03 1.512890e-02 7.417088e-03 1.078082e-03 -9.863513e-03 -2.610727e-02 -1.202040e-02
<VARIANCE> 75
 2.314211e+00 2.960804e-01 3.177623e-01 1.155564e-01 5.624096e-02 7.332030e-02 9.887843e-02 6.043778e-02 4.628494e-02 4.168362e-02 1.966655e-02 2.779146e-02 1.695142e-02 3.650416e-02 2.905736e-02 2.153782e-02 1.611212e-02 1.913829e-02 1.872240e-02 2.049242e-02 1.501753e-02 2.272377e-02 6.713343e-02 8.193506e-02 3.022486e-02 2.740558e-02 8.840398e-03 1.287839e-02 6.984470e-03 3.324536e-03 3.694339e-03 2.488692e-03 2.260825e-03 3.273493e-03 2.218383e-03 1.563468e-03 1.450432e-03 2.015950e-03 1.586192e-03 1.593551e-03 2.492646e-03 1.545486e-03 1.504340e-03 3.450871e-03 1.485356e-03 2.553203e-03 2.188709e-03 4.685012e-03 4.692703e-03 2.176584e-03 1.578757e-02 1.108648e-02 9.623981e-03 1.065231e-02 7.148537e-03 4.408445e-03 6.723572e-03 4.280341e-03 4.746574e-03 5.650892e-03 2.984606e-03 3.578860e-03 4.825897e-03 3.722714e-03 4.851175e-03 5.629639e-03 4.407386e-03 4.235876e-03 4.138304e-03 3.968939e-03 5.093328e-03 5.326107e-03 5.219137e-03 7.636607e-03 5.776622e-03
<GCONST> -2.124433e+02
<STREAM> 2
<NUMMIXES> 2
<MIXTURE> 1 8.562697e-01
<MEAN> 1
 5.588593e+00
<VARIANCE> 1
 8.709515e-03
<GCONST> -2.905462e+00
<MIXTURE> 2 1.437304e-01
<MEAN> 0
<VARIANCE> 0
<GCONST> 0.000000e+00
<STREAM> 3
<NUMMIXES> 2
<MIXTURE> 1 8.562695e-01
<MEAN> 1
 -7.480790e-03
<VARIANCE> 1
 3.384845e-04
<GCONST> -6.153155e+00
<MIXTURE> 2 1.437304e-01
<MEAN> 0
<VARIANCE> 0
<GCONST> 0.000000e+00
<STREAM> 4
<NUMMIXES> 2
<MIXTURE> 1 8.562696e-01
<MEAN> 1
 -4.212169e-04
<VARIANCE> 1
 1.219263e-04
<GCONST> -7.174216e+00
<MIXTURE> 2 1.437304e-01
<MEAN> 0
<VARIANCE> 0
<GCONST> 0.000000e+00
<TRANSP> 7
 0.000000e+00 1.000000e+00 0.000000e+00 0.000000e+00 0.000000e+00 0.000000e+00 0.000000e+00
 0.000000e+00 0.000000e+00 1.000000e+00 0.000000e+00 0.000000e+00 0.000000e+00 0.000000e+00
 0.000000e+00 0.000000e+00 0.000000e+00 1.000000e+00 0.000000e+00 0.000000e+00 0.000000e+00
 0.000000e+00 0.000000e+00 0.000000e+00 0.000000e+00 1.000000e+00 0.000000e+00 0.000000e+00
 0.000000e+00 0.000000e+00 0.000000e+00 0.000000e+00 0.000000e+00 1.000000e+00 0.000000e+00
 0.000000e+00 0.000000e+00 0.000000e+00 0.000000e+00 0.000000e+00 0.000000e+00 1.000000e+00
 0.000000e+00 0.000000e+00 0.000000e+00 0.000000e+00 0.000000e+00 0.000000e+00 0.000000e+00
<ENDHMM>
~h "b"
<BEGINHMM>
<NUMSTATES> 7
<STATE> 2
<STREAM> 1
<MEAN> 75
 3.930556e+00 1.811365e+00 6.459732e-01 4.777908e-01 2.376234e-01 -6.208108e-02 -1.845397e-01 -6.464953e-02 -1.897997e-01 -9.720363e-02 -1.777466e-01 -1.436471e-01 -1.872226e-01 -1.612814e-01 -9.489734e-02 -5.002316e-02 -6.283997e-02 4.124684e-02 -2.120862e-02 8.290215e-03 -1.212310e-02 1.881614e-02 2.434301e-02 3.353850e-02 -5.973252e-03 2.138100e-01 4.245356e-02 -1.971063e-03 -3.947380e-02 -5.033659e-02 -2.424504e-02 -9.873329e-03 -1.463746e-02 -4.787859e-04 -8.079577e-03 -2.641497e-02 -1.450907e-02 -1.621871e-02 -1.923420e-02 -1.131550e-02 7.695562e-03 -1.597800e-02 5.294351e-04 -2.135898e-02 -4.686674e-03 -8.717925e-03 -1.045882e-03 6.611377e-03 -4.529601e-03 -2.953434e-04 3.780323e-02 -2.917903e-02 -2.307424e-02 -1.622408e-03 -3.440628e-03 1.386269e-02 -2.835811e-03 -3.333425e-03 1.942813e-02 5.054809e-03 1.183975e-02 1.457901e-02 1.137216e-02 6.142400e-03 -6.977303e-03 8.748926e-03 -5.795158e-03 -7.634083e-03 1.012217e-03 -3.994597e-03 5.166063e-03 1.440489e-03 -7.127824e-03 6.886265e-03 -2.304043e-03
<VARIANCE> 75
 9.435135e-01 1.892589e-01 9.747358e-02 5.633699e-02 6.194890e-02 2.445626e-02 1.631511e-02 1.886681e-02 1.366365e-02 2.269964e-02 1.723923e-02 1.632993e-02 3.134223e-02 2.030301e-02 1.135393e-02 1.757949e-02 6.839936e-03 1.864151e-02 1.663905e-02 8.560397e-03 4.133614e-03 4.288033e-03 7.428036e-03 3.510044e-03 5.286235e-03 8.275796e-02 2.711304e-02 3.166661e-02 7.960215e-03 8.627409e-03 9.616632e-03 4.984506e-03 4.787347e-03 6.414839e-03 4.881795e-03 3.726370e-03 3.811513e-03 2.752832e-03 3.780368e-03 2.544274e-03 2.360896e-03 1.700427e-03 8.239396e-03 4.225068e-03 2.393420e-03 1.271910e-03 2.513570e-03 1.923006e-03 1.538222e-03 4.321890e-03 6.919441e-02 4.474007e-02 2.079255e-02 1.383443e-02 9.188877e-03 1.157136e-02 1.831556e-02 9.202642e-03 1.285972e-02 1.426891e-02 8.920874e-03 5.679709e-03 5.940178e-03 7.134711e-03 9.503679e-03 7.393799e-03 5.443305e-03 1.910208e-02 1.244733e-02 9.764243e-03 5.990167e-03 1.036628e-02 9.324200e-03 3.554244e-03 7.058867e-03
<GCONST> -2.063559e+02
<STREAM> 2
<NUMMIXES> 2
<MIXTURE> 1 6.004736e-01
<MEAN> 1
 5.279001e+00
<VARIANCE> 1
 1.902778e-01
<GCONST> 1.786067e-01
<MIXTURE> 2 3.995264e-01
<MEAN> 0
<VARIANCE> 0
<GCONST> 0.000000e+00
<STREAM> 3
<NUMMIXES> 2
<MIXTURE> 1 5.146844e-01
<MEAN> 1
 6.785049e-03
<VARIANCE> 1
 4.097464e-03
<GCONST> -3.659510e+00
<MIXTURE> 2 4.853156e-01
<MEAN> 0
<VARIANCE> 0
<GCONST> 0.000000e+00
<STREAM> 4
<NUMMIXES> 2
<MIXTURE> 1 5.146844e-01
<MEAN> 1
 -3.330544e-03
<VARIANCE> 1
 1.875065e-02
<GCONST> -2.138650e+00
<MIXTURE> 2 4.853156e-01
<MEAN> 0
<VARIANCE> 0
<GCONST> 0.000000e+00
<STATE> 3
<STREAM> 1
<MEAN> 75
 6.067790e+00 1.931182e+00 5.346884e-01 1.690774e-01 -4.394518e-01 -2.805139e-01 -2.887054e-01 -1.274211e-01 -6.425279e-02 -6.536091e-02 -3.088667e-01 -1.721753e-01 -2.337567e-01 -1.077069e-01 -1.196869e-01 7.155064e-02 -1.922871e-01 1.515470e-01 -1.757354e-01 -5.460456e-02 -1.751668e-01 -9.932692e-02 -3.513831e-02 -3.228024e-02 -2.919869e-02 -3.743009e-02 1.124540e-02 -3.032819e-03 1.166702e-02 1.172506e-02 1.753987e-02 -3.025737e-03 2.807565e-03 1.368783e-03 -5.178927e-03 2.605775e-02 5.748903e-03 8.637111e-03 -8.382026e-03 4.067697e-03 -4.874778e-03 1.330349e-03 -9.205139e-03 3.538035e-04 -4.885694e-03 -3.990537e-03 -4.755296e-03 -5.672162e-03 -6.009189e-03 -2.443384e-04 -5.417726e-02 2.254423e-02 1.507467e-02 1.187307e-02 1.596537e-02 1.084509e-02 -5.114618e-03 1.065985e-02 -3.187547e-03 5.065537e-03 1.815110e-02 2.823155e-03 -1.851439e-03 6.649104e-04 -1.837644e-03 -5.373844e-03 -2.669475e-04 9.568009e-03 1.022412e-02 9.394083e-03 1.002488e-02 1.144252e-03 7.552207e-03 3.995450e-03 6.661130e-03
<VARIANCE> 75
 1.467202e+00 1.240822e-01 8.358906e-01 2.892226e-02 1.789683e-01 2.979113e-02 1.525411e-02 9.766077e-02 9.016073e-03 1.906640e-02 2.752661e-02 4.081920e-02 1.489856e-02 1.232377e-02 2.121602e-02 1.564956e-02 8.687591e-03 1.978008e-02 7.921388e-03 1.588189e-02 7.645419e-03 1.523148e-02 6.991088e-03 2.462468e-02 4.291612e-02 2.683270e-02 8.773194e-03 1.054659e-02 2.244423e-03 5.877788e-03 3.863726e-03 2.190333e-03 5.162921e-03 2.377138e-03 2.253928e-03 1.817912e-03 2.076143e-03 2.105336e-03 1.640002e-03 2.236421e-03 1.448811e-03 1.762453e-03 1.794032e-03 1.915932e-03 2.592524e-03 1.462706e-03 1.646928e-03 2.079652e-03 1.493393e-03 2.757407e-03 3.462661e-02 1.649061e-02 3.538954e-02 5.520812e-03 1.972522e-02 7.982858e-03 7.479087e-03 7.933895e-03 4.060078e-03 4.721343e-03 5.920244e-03 5.004698e-03 5.072312e-03 2.397273e-03 5.160699e-03 2.453885e-03 2.693488e-03 6.332179e-03 3.459501e-03 5.482991e-03 2.191804e-03 3.087801e-03 2.508447e-03 3.260450e-03 4.637165e-03
<GCONST> -2.264652e+02
<STREAM> 2
<NUMMIXES> 2
<MIXTURE> 1 9.500000e-01
<MEAN> 1
 5.188398e+00
<VARIANCE> 1
 1.216829e-01
<GCONST> -2.684593e-01
<MIXTURE> 2 5.000000e-02
<MEAN> 0
<VARIANCE> 0
<GCONST> 0.000000e+00
<STREAM> 3
<NUMMIXES> 2
<MIXTURE> 1 9.361904e-01
<MEAN> 1
 -2.265837e-02
<VARIANCE> 1
 1.606534e-03
<GCONST> -4.595798e+00
<MIXTURE> 2 6.380966e-02
<MEAN> 0
<VARIANCE> 0
<GCONST> 0.000000e+00
<STREAM> 4
<NUMMIXES> 2
<MIXTURE> 1 9.361904e-01
<MEAN> 1
 2.830384e-03
<VARIANCE> 1
 3.289433e-03
<GCONST> -3.879163e+00
<MIXTURE> 2 6.380963e-02
<MEAN> 0
<VARIANCE> 0
<GCONST> 0.000000e+00
<STATE> 4
<STREAM> 1
<MEAN> 75
 4.777328e+00 1.867604e+00 5.387431e-01 3.360423e-01 1.996548e-01 1.555988e-01 -1.247394e-01 -1.515657e-01 -1.386013e-01 -1.670059e-01 -1.633493e-01 -2.057185e-01 -2.567055e-01 -2.178679e-01 -1.752717e-01 -1.480787e-01 -1.840518e-01 -1.957185e-02 -6.377669e-02 -1.123895e-01 -3.042964e-02 1.444581e-04 1.259511e-02 6.654128e-02 -2.551208e-02 -9.245850e-02 -4.375327e-02 1.762594e-02 1.930714e-02 1.584867e-02 3.685789e-02 5.422899e-03 4.639670e-03 2.161489e-02 2.802658e-02 -5.081243e-03 1.290104e-02 -1.237270e-02 2.831264e-02 -1.996811e-02 -2.115308e-02 -3.936694e-03 4.470750e-03 4.032495e-03 2.107122e-02 4.047772e-02 6.617532e-03 1.246236e-02 2.259950e-02 3.368515e-03 -2.453646e-03 -2.503820e-02 -4.841380e-02 -4.069588e-03 -1.013816e-02 -2.665804e-02 -5.307575e-03 -1.156379e-02 -5.711279e-04 1.357021e-02 -2.482907e-02 -3.199507e-03 -1.718296e-02 1.044340e-02 5.781779e-03 8.874678e-03 9.450378e-03 -9.617631e-03 -2.003438e-02 -8.896574e-03 -5.206535e-03 -2.812953e-03 6.654148e-03 4.979264e-03 -2.903025e-03
<VARIANCE> 75
 7.325280e-01 3.258333e-01 2.714551e-01 7.181941e-02 4.042651e-02 4.412780e-02 8.629415e-03 2.370212e-02 8.897408e-03 1.102554e-02 1.194159e-02 1.908778e-02 2.244401e-02 2.433598e-02 1.655109e-02 1.107232e-02 8.468062e-03 4.849991e-03 9.522861e-03 2.190860e-02 9.057580e-03 1.000142e-02 1.202028e-02 1.868120e-02 6.500028e-03 3.075632e-02 3.042573e-03 1.155375e-02 3.862071e-03 3.932960e-03 7.040904e-03 2.223504e-03 7.073295e-03 1.882886e-03 3.647432e-03 4.856252e-03 3.430527e-03 2.556089e-03 2.715206e-03 1.723680e-03 1.957017e-03 1.721971e-03 1.712790e-03 2.139300e-03 2.552159e-03 1.707091e-03 1.092844e-03 2.503913e-03 1.542496e-03 6.011469e-04 3.902367e-02 3.919673e-02 2.746841e-02 1.045113e-02 1.024613e-02 1.499857e-02 8.372715e-03 8.063911e-03 4.340276e-03 5.727511e-03 8.058877e-03 9.944060e-03 6.564129e-03 8.977392e-03 4.764604e-03 2.417585e-03 6.179923e-03 4.872472e-03 6.200166e-03 6.825562e-03 7.016117e-03 2.511461e-03 7.025292e-03 5.031400e-03 4.712561e-03
<GCONST> -2.247525e+02
<STREAM> 2
<NUMMIXES> 2
<MIXTURE> 1 9.166317e-01
<MEAN> 1
 5.390149e+00
<VARIANCE> 1
 6.486551e-02
<GCONST> -8.975620e-01
<MIXTURE> 2 8.336830e-02
<MEAN> 0
<VARIANCE> 0
<GCONST> 0.000000e+00
<STREAM> 3
<NUMMIXES> 2
<MIXTURE> 1 8.749731e-01
<MEAN> 1
 2.369579e-02
<VARIANCE> 1
 1.873581e-03
<GCONST> -4.442027e+00
<MIXTURE> 2 1.250270e-01
<MEAN> 0
<VARIANCE> 0
<GCONST> 0.000000e+00
<STREAM> 4
<NUMMIXES> 2
<MIXTURE> 1 8.749731e-01
<MEAN> 1
 -1.032035e-02
<VARIANCE> 1
 3.653718e-03
<GCONST> -3.774133e+00
<MIXTURE> 2 1.250269e-01
<MEAN> 0
<VARIANCE> 0
<GCONST> 0.000000e+00
<STATE> 5
<STREAM> 1
<MEAN> 75
 3.917626e+00 1.117355e+00 4.221199e-01 5.251989e-01 2.334769e-01 2.808816e-01 -1.123397e-01 -2.385044e-02 -3.573088e-02 -2.767224e-02 -6.350947e-02 -2.886247e-02 -1.669534e-01 -7.374760e-02 -1.308962e-01 -9.186617e-02 -1.120353e-01 5.019773e-02 -1.604773e-02 6.574308e-02 7.215611e-02 5.974093e-02 1.126943e-01 1.369577e-01 5.097004e-02 6.134243e-02 -1.348236e-01 -1.140877e-01 -2.896323e-02 -1.957730e-02 3.106245e-02 1.760022e-02 6.296511e-03 1.350432e-02 1.025282e-02 7.380947e-03 1.749641e-02 1.820217e-02 1.469696e-02 1.596408e-02 2.275498e-02 2.493057e-02 2.035529e-02 1.257121e-02 1.123236e-02 5.319431e-03 1.834578e-02 2.687957e-02 2.176161e-02 1.016193e-02 8.758856e-02 -3.234106e-02 2.254845e-02 -2.997456e-02 -3.424160e-02 -1.863430e-02 4.175894e-03 -8.938293e-03 -1.306385e-02 -2.726969e-02 -1.734503e-02 -7.904922e-03 1.545794e-02 -5.318337e-04 1.940280e-02 1.467061e-02 6.137336e-03 7.712610e-03 2.161799e-02 9.242251e-03 -1.084770e-02 6.038181e-03 -5.115969e-03 -1.532595e-02 1.381764e-03
<VARIANCE> 75
 3.389500e-01 4.612401e-01 9.534090e-02 3.106157e-02 2.010754e-02 7.022997e-02 1.290228e-02 4.932166e-02 1.264591e-02 1.278306e-02 1.693415e-02 1.034398e-02 1.669090e-02 8.998752e-03 1.758649e-02 1.284339e-02 1.359288e-02 9.083310e-03 1.097398e-02 1.120207e-02 9.229197e-03 1.561644e-02 2.322962e-02 2.630735e-02 1.202070e-02 6.601895e-02 3.643272e-02 1.679699e-02 6.642888e-03 1.015102e-02 1.008832e-02 2.973339e-03 5.734340e-03 3.859394e-03 2.702275e-03 3.595637e-03 3.343851e-03 2.881912e-03 1.654415e-03 4.062578e-03 2.598479e-03 1.744032e-03 2.990365e-03 2.926263e-03 3.480771e-03 1.391922e-03 9.631198e-04 3.020775e-03 2.452550e-03 2.782691e-03 8.558331e-02 8.038735e-02 2.759588e-02 2.628041e-02 1.674111e-02 2.205502e-02 1.362032e-02 1.411409e-02 8.520279e-03 7.916867e-03 6.414111e-03 8.235745e-03 5.619970e-03 3.223374e-03 7.894984e-03 8.298016e-03 6.766479e-03 7.035132e-03 7.719770e-03 6.921350e-03 5.147639e-03 3.378513e-03 4.464156e-03 2.901501e-03 8.626296e-03
<GCONST> -2.091248e+02
<STREAM> 2
<NUMMIXES> 2
<MIXTURE> 1 2.800260e-01
<MEAN> 1
 5.646543e+00
<VARIANCE> 1
 5.202030e-03
<GCONST> -3.420830e+00
<MIXTURE> 2 7.199740e-01
<MEAN> 0
<VARIANCE> 0
<GCONST> 0.000000e+00
<STREAM> 3
<NUMMIXES> 2
<MIXTURE> 1 2.000187e-01
<MEAN> 1
 -1.724294e-02
<VARIANCE> 1
 8.492028e-04
<GCONST> -5.233335e+00
<MIXTURE> 2 7.999814e-01
<MEAN> 0
<VARIANCE> 0
<GCONST> 0.000000e+00
<STREAM> 4
<NUMMIXES> 2
<MIXTURE> 1 2.000187e-01
<MEAN> 1
 3.809089e-03
<VARIANCE> 1
 2.192626e-03
<GCONST> -4.284778e+00
<MIXTURE> 2 7.999813e-01
<MEAN> 0
<VARIANCE> 0
<GCONST> 0.000000e+00
<STATE> 6
<STREAM> 1
<MEAN> 75
 4.722614e+00 9.922354e-01 3.847531e-01 2.557373e-01 2.395104e-02 2.476500e-01 -1.205841e-01 -1.263160e-01 -1.096575e-01 -1.250491e-01 -1.814532e-01 -8.882191e-02 -1.691562e-01 -6.517933e-02 -4.165491e-02 4.484056e-02 -2.896736e-02 6.270453e-02 1.128469e-01 6.577339e-02 1.512611e-01 1.393486e-01 1.738602e-01 1.152445e-01 5.258111e-03 1.003202e-01 -2.354304e-02 5.724880e-02 -1.503983e-02 -4.221925e-02 -4.775063e-02 -1.583998e-02 8.121339e-03 -1.470547e-02 -8.849833e-03 -8.728120e-03 2.676030e-03 8.508649e-03 9.757431e-03 7.417685e-04 1.722401e-02 1.102836e-02 -5.998456e-03 -1.002809e-03 -3.964986e-03 4.920257e-03 3.804655e-03 -8.354908e-04 -1.395378e-02 -9.767203e-03 -2.435358e-05 4.532982e-02 8.303078e-04 3.775437e-02 3.337256e-02 2.232172e-02 7.488603e-03 5.941942e-04 1.055257e-02 4.872967e-03 9.102833e-03 1.321469e-02 -7.388810e-03 -1.150547e-02 -1.605207e-02 -1.195545e-02 -1.393072e-02 -1.383958e-02 -2.449939e-02 -1.013120e-02 -7.566219e-03 -3.437916e-03 -5.807277e-03 1.164073e-03 -7.699921e-03
<VARIANCE> 75
 7.325172e-01 8.632869e-01 4.841954e-02 4.365000e-02 6.026366e-02 2.341347e-02 9.613626e-03 2.744231e-02 2.672162e-02 2.426383e-02 1.793783e-02 4.202297e-02 2.901300e-02 1.962740e-02 1.129807e-02 1.363315e-02 8.471170e-03 5.957286e-03 2.273328e-02 7.583976e-03 1.508017e-02 1.662382e-02 2.097039e-02 1.846538e-02 1.614404e-02 8.888541e-02 7.144981e-02 1.008868e-02 5.995610e-03 5.291673e-03 4.084100e-03 3.307708e-03 2.743239e-03 3.973587e-03 2.758283e-03 3.149848e-03 5.749436e-04 2.163729e-03 8.878788e-04 2.906937e-03 2.325632e-03 2.136950e-03 1.406225e-03 1.713295e-03 1.474789e-03 2.862237e-03 2.246973e-03 5.919280e-03 4.531904e-03 3.064333e-03 6.768713e-02 6.439312e-02 2.212841e-02 1.376018e-02 9.012042e-03 1.079069e-02 5.891951e-03 1.084659e-02 8.095412e-03 3.947114e-03 8.528850e-03 3.145085e-03 3.701823e-03 3.357147e-03 7.618790e-03 4.675700e-03 6.943768e-03 6.375222e-03 4.506859e-03 6.075844e-03 5.017774e-03 7.591891e-03 6.677760e-03 7.253117e-03 6.661463e-03
<GCONST> -2.143992e+02
<STREAM> 2
<NUMMIXES> 2
<MIXTURE> 1 5.516542e-01
<MEAN> 1
 5.763548e+00
<VARIANCE> 1
 5.348444e-03
<GCONST> -3.393072e+00
<MIXTURE> 2 4.483459e-01
<MEAN> 0
<VARIANCE> 0
<GCONST> 0.000000e+00
<STREAM> 3
<NUMMIXES> 2
<MIXTURE> 1 4.827225e-01
<MEAN> 1
 -2.538590e-03
<VARIANCE> 1
 7.109263e-04
<GCONST> -5.411065e+00
<MIXTURE> 2 5.172774e-01
<MEAN> 0
<VARIANCE> 0
<GCONST> 0.000000e+00
<STREAM> 4
<NUMMIXES> 2
<MIXTURE> 1 4.827225e-01
<MEAN> 1
 -7.417587e-03
<VARIANCE> 1
 1.224101e-03
<GCONST> -4.867672e+00
<MIXTURE> 2 5.172774e-01
<MEAN> 0
<VARIANCE> 0
<GCONST> 0.000000e+00
<TRANSP> 7
 0.000000e+00 1.000000e+00 0.000000e+00 0.000000e+00 0.000000e+00 0.000000e+00 0.000000e+00
 0.000000e+00 0.000000e+00 1.000000e+00 0.000000e+00 0.000000e+00 0.000000e+00 0.000000e+00
 0.000000e+00 0.000000e+00 0.000000e+00 1.000000e+00 0.000000e+00 0.000000e+00 0.000000e+00
 0.000000e+00 0.000000e+00 0.000000e+00 0.000000e+00 1.000000e+00 0.000000e+00 0.000000e+00
 0.000000e+00 0.000000e+00 0.000000e+00 0.000000e+00 0.000000e+00 1.000000e+00 0.000000e+00
 0.000000e+00 0.000000e+00 0.000000e+00 0.000000e+00 0.000000e+00 0.000000e+00 1.000000e+00
 0.000000e+00 0.000000e+00 0.000000e+00 0.000000e+00 0.000000e+00 0.000000e+00 0.000000e+00
<ENDHMM>
~h "d"
<BEGINHMM>
<NUMSTATES> 7
<STATE> 2
<STREAM> 1
<MEAN> 75
 7.216556e+00 9.406596e-01 1.107511e-01 1.284768e-01 -1.957162e-01 -6.701984e-01 -7.505019e-01 3.056314e-01 -1.934964e-02 -8.643220e-02 -1.255123e-01 -2.416205e-01 -1.549283e-02 -3.237518e-01 -1.706253e-01 -1.439525e-01 -2.606964e-01 2.222344e-01 -1.435459e-01 8.925993e-03 -1.382056e-01 -6.460480e-02 1.194728e-02 1.595450e-01 5.137499e-02 1.823975e-01 -8.853623e-02 -8.426790e-03 2.590192e-02 -2.829531e-02 -1.119243e-02 -9.745670e-03 1.597241e-02 -2.528608e-02 -1.926270e-02 2.587938e-02 1.407929e-02 -1.931804e-02 2.917151e-03 3.034690e-03 -3.432405e-02 2.804013e-03 1.084703e-02 6.818817e-04 1.541029e-02 -1.142022e-02 -1.908229e-02 9.321350e-03 3.141308e-03 -9.258213e-03 -6.546658e-02 -2.163097e-03 1.942330e-03 1.361130e-02 1.764032e-02 2.577175e-02 1.016186e-02 -1.659865e-02 -1.266445e-02 -3.013319e-03 7.115285e-03 -6.350520e-03 -1.002202e-02 5.577753e-03 -5.090207e-03 1.248297e-02 1.385000e-02 -1.381303e-02 -1.160397e-02 1.068502e-03 -6.213083e-04 1.199531e-03 7.166200e-03 7.467144e-03 -3.514598e-03
<VARIANCE> 75
 7.069305e-01 1.240140e-01 1.175782e-02 3.223657e-02 3.582817e-02 1.136541e-02 2.958383e-02 4.643537e-02 2.631663e-02 1.515710e-02 2.565838e-02 1.975706e-02 3.612069e-03 1.505603e-02 9.025764e-03 1.589994e-02 1.470169e-02 5.867892e-03 4.191532e-03 9.589522e-03 1.050686e-02 4.807820e-02 2.706610e-02 1.780805e-02 1.853727e-02 3.666546e-02 7.338624e-03 2.763883e-03 3.882547e-03 2.156773e-03 2.888503e-03 2.028742e-03 2.304747e-03 1.340305e-03 1.038774e-03 8.976717e-04 8.664104e-04 1.018270e-03 2.781037e-03 2.128734e-03 2.199148e-03 7.411363e-04 1.147267e-03 2.411438e-03 2.355314e-03 7.284134e-04 3.248964e-03 5.968424e-03 5.274409e-03 2.743507e-03 7.362437e-03 4.489277e-03 3.533050e-03 5.151592e-03 5.111346e-03 2.053972e-03 1.680843e-03 3.105191e-03 1.690433e-03 2.567437e-03 3.079863e-03 1.740216e-03 2.819119e-03 3.595714e-03 2.668638e-03 2.156350e-03 2.552127e-03 2.980896e-03 2.992610e-03 2.389060e-03 2.033524e-03 5.206309e-03 4.212586e-03 4.052289e-03 3.802035e-03
<GCONST> -2.559905e+02
<STREAM> 2
<NUMMIXES> 2
<MIXTURE> 1 8.571515e-01
<MEAN> 1
 5.549617e+00
<VARIANCE> 1
 6.940347e-03
<GCONST> -3.132527e+00
<MIXTURE> 2 1.428484e-01
<MEAN> 0
<VARIANCE> 0
<GCONST> 0.000000e+00
<STREAM> 3
<NUMMIXES> 2
<MIXTURE> 1 8.095338e-01
<MEAN> 1
 -6.819961e-03
<VARIANCE> 1
 4.540694e-04
<GCONST> -5.859384e+00
<MIXTURE> 2 1.904662e-01
<MEAN> 0
<VARIANCE> 0
<GCONST> 0.000000e+00
<STREAM> 4
<NUMMIXES> 2
<MIXTURE> 1 8.095328e-01
<MEAN> 1
 -2.658571e-03
<VARIANCE> 1
 1.808538e-04
<GCONST> -6.779944e+00
<MIXTURE> 2 1.904671e-01
<MEAN> 0
<VARIANCE> 0
<GCONST> 0.000000e+00
<STATE> 3
<STREAM> 1
<MEAN> 75
 6.664565e+00 1.148685e+00 5.780445e-01 4.686649e-01 -7.179151e-02 -3.816044e-01 -4.877083e-01 6.977935e-02 -2.901932e-01 -1.878871e-01 -3.984872e-03 -3.346171e-01 -1.675878e-01 -2.835824e-01 -1.257064e-01 -1.814147e-01 -1.273604e-01 5.883760e-02 -2.387282e-01 -6.837231e-03 -2.395600e-01 -2.246712e-02 -9.787381e-02 3.836947e-02 -9.955457e-02 -1.388371e-01 3.846038e-02 5.519248e-02 1.515531e-02 1.364196e-02 4.656278e-02 3.412833e-02 -1.359747e-02 -1.666749e-02 -1.743385e-03 7.595733e-04 -1.414739e-02 -6.457297e-04 3.975218e-03 -1.111723e-03 1.523325e-02 2.375848e-02 -1.684090e-02 8.805747e-03 -5.200657e-03 -1.785343e-03 5.592582e-03 -8.898656e-03 1.577965e-03 1.408103e-03 -7.547569e-03 7.483142e-03 4.542062e-03 -3.508491e-03 5.486685e-03 -2.616732e-04 2.012838e-03 3.350744e-03 6.213261e-03 2.814244e-03 -1.059611e-02 2.868450e-04 3.653222e-03 3.659996e-03 -3.442304e-03 -6.962140e-03 -6.724954e-03 4.411298e-03 9.291913e-03 2.708484e-03 4.418617e-03 -3.285585e-03 -2.366319e-03 -3.994054e-03 1.608265e-03
<VARIANCE> 75
 6.504881e-01 2.673329e-01 8.781742e-02 3.897606e-02 2.557433e-02 8.617233e-02 1.022216e-01 2.693697e-02 3.207348e-02 4.847853e-03 7.103445e-03 1.131953e-02 8.623117e-03 2.568355e-03 1.293298e-02 1.272441e-02 1.009749e-02 1.609090e-02 1.312370e-02 1.415173e-02 1.470402e-02 1.974843e-02 2.968414e-02 2.883194e-02 1.613841e-02 7.993075e-03 9.490772e-03 3.484769e-03 3.881430e-03 2.616648e-03 2.221910e-03 1.800733e-03 1.893964e-03 2.893222e-03 1.259374e-03 1.232855e-03 2.610736e-03 1.487209e-03 3.178217e-04 9.616028e-04 7.974489e-04 1.904353e-03 1.935729e-03 1.892588e-03 3.802121e-03 1.645838e-03 1.660287e-03 1.191242e-03 3.209743e-03 2.372292e-03 2.885809e-03 6.476890e-03 3.703650e-03 3.306482e-03 3.107126e-03 3.424021e-03 2.448930e-03 1.920498e-03 2.348435e-03 3.625415e-03 3.318310e-03 2.200353e-03 2.125460e-03 1.130123e-03 1.352763e-03 1.928644e-03 1.784600e-03 2.451149e-03 2.140565e-03 2.514828e-03 2.835860e-03 2.586966e-03 3.585171e-03 5.962133e-03 3.324529e-03
<GCONST> -2.586813e+02
<STREAM> 2
<NUMMIXES> 2
<MIXTURE> 1 9.500000e-01
<MEAN> 1
 5.407284e+00
<VARIANCE> 1
 1.039736e-02
<GCONST> -2.728327e+00
<MIXTURE> 2 5.000000e-02
<MEAN> 0
<VARIANCE> 0
<GCONST> 0.000000e+00
<STREAM> 3
<NUMMIXES> 2
<MIXTURE> 1 9.500000e-01
<MEAN> 1
 -9.543755e-03
<VARIANCE> 1
 3.685247e-05
<GCONST> -8.370710e+00
<MIXTURE> 2 5.000000e-02
<MEAN> 0
<VARIANCE> 0
<GCONST> 0.000000e+00
<STREAM> 4
<NUMMIXES> 2
<MIXTURE> 1 9.500000e-01
<MEAN> 1
 3.640952e-04
<VARIANCE> 1
 1.013810e-04
<GCONST> -7.358747e+00
<MIXTURE> 2 5.000000e-02
<MEAN> 0
<VARIANCE> 0
<GCONST> 0.000000e+00
<STATE> 4
<STREAM> 1
<MEAN> 75
 5.312140e+00 1.184291e+00 5.547987e-01 4.218320e-01 6.910245e-02 -2.187024e-02 -1.963731e-01 -6.352492e-02 -2.259478e-01 -1.366270e-01 -1.439054e-01 -3.556586e-01 -1.912233e-01 -1.446742e-01 -2.002949e-01 -1.345051e-01 -7.063095e-02 -2.292978e-02 1.152634e-03 5.290721e-02 9.072231e-02 2.913157e-01 2.395005e-01 3.486770e-01 5.774735e-02 -1.230625e-01 3.847974e-02 -7.439239e-04 -3.695717e-03 1.105912e-02 9.085769e-03 9.498948e-03 4.204102e-03 1.714177e-03 1.314041e-02 8.232291e-03 1.111994e-02 -1.088324e-02 1.046482e-02 3.742217e-03 -3.418328e-03 -2.803055e-03 3.197818e-03 6.078656e-03 -5.858094e-03 -5.490903e-03 -6.829341e-03 4.083970e-03 -3.548339e-03 5.519314e-03 2.597112e-03 5.699110e-04 1.350908e-02 5.598652e-03 -2.914381e-03 -1.063507e-02 -1.436349e-02 2.426123e-03 -2.784835e-03 -1.949465e-03 2.530186e-04 1.275776e-02 2.722716e-03 -7.331369e-03 -6.869979e-04 3.550341e-03 -3.234450e-03 4.832643e-03 -4.200228e-03 -8.095204e-03 1.715850e-04 6.792224e-03 7.132464e-04 -7.188162e-03 -8.322597e-03
<VARIANCE> 75
 6.389909e-01 3.390779e-01 9.114606e-02 2.730511e-02 4.827921e-02 2.097537e-02 2.081327e-02 4.281286e-02 1.333227e-02 6.060678e-03 1.142486e-02 2.420390e-02 1.081435e-02 7.148249e-03 9.208442e-03 1.765507e-02 4.568682e-03 9.078971e-03 6.310117e-03 2.225452e-02 3.130883e-02 7.446657e-02 8.434925e-02 6.811024e-02 2.874045e-02 1.812509e-02 1.728467e-02 6.333144e-03 7.258778e-03 3.220966e-03 3.253300e-03 1.717152e-03 3.484767e-03 2.209166e-03 2.356757e-03 3.040415e-03 1.506054e-03 7.380076e-04 1.958831e-03 2.545357e-03 1.563712e-03 9.540502e-04 1.377476e-03 2.035885e-03 1.163530e-03 1.770312e-03 1.750600e-03 1.998370e-03 1.321044e-03 2.122679e-03 9.201478e-03 1.305171e-02 7.524547e-03 1.240257e-02 3.151425e-03 5.616348e-03 4.522789e-03 5.978117e-03 2.911808e-03 3.561560e-03 7.614790e-03 2.590045e-03 2.568684e-03 3.693629e-03 5.508000e-03 4.177094e-03 2.826530e-03 3.898330e-03 3.202231e-03 2.908915e-03 6.300367e-03 5.035883e-03 7.005092e-03 3.507710e-03 3.932314e-03
<GCONST> -2.370448e+02
<STREAM> 2
<NUMMIXES> 2
<MIXTURE> 1 9.500000e-01
<MEAN> 1
 5.594313e+00
<VARIANCE> 1
 3.807146e-02
<GCONST> -1.430413e+00
<MIXTURE> 2 5.000000e-02
<MEAN> 0
<VARIANCE> 0
<GCONST> 0.000000e+00
<STREAM> 3
<NUMMIXES> 2
<MIXTURE> 1 9.500000e-01
<MEAN> 1
 1.130748e-03
<VARIANCE> 1
 5.535857e-04
<GCONST> -5.661217e+00
<MIXTURE> 2 5.000000e-02
<MEAN> 0
<VARIANCE> 0
<GCONST> 0.000000e+00
<STREAM> 4
<NUMMIXES> 2
<MIXTURE> 1 9.500000e-01
<MEAN> 1
 1.527539e-03
<VARIANCE> 1
 2.977133e-03
<GCONST> -3.978917e+00
<MIXTURE> 2 5.000000e-02
<MEAN> 0
<VARIANCE> 0
<GCONST> 0.000000e+00
<STATE> 5
<STREAM> 1
<MEAN> 75
 5.808837e+00 3.013603e-01 4.979613e-01 4.855039e-01 -2.516908e-01 -3.469932e-02 -2.711952e-01 1.131029e-01 -9.905676e-02 -9.112158e-02 -1.877295e-02 -2.279699e-01 -2.023285e-01 -7.979737e-02 -1.828481e-01 -4.228586e-02 -1.466630e-01 1.065654e-01 1.094381e-04 -4.582205e-02 -1.083841e-01 1.584033e-01 7.712162e-02 1.584901e-01 7.130127e-02 1.779741e-01 -4.800962e-02 -4.875612e-02 -4.932737e-02 -2.463412e-02 3.487854e-03 -1.831989e-02 -2.323850e-03 -7.549791e-03 -1.726590e-03 -2.053921e-02 -2.908903e-02 7.822216e-03 4.306931e-03 6.296771e-03 -9.027632e-03 -1.349774e-02 2.034269e-03 1.442459e-02 4.182288e-04 1.758404e-03 3.589266e-02 4.471236e-02 4.405154e-02 1.858513e-02 5.373102e-03 7.996516e-03 -2.301583e-02 -2.462715e-02 7.021225e-03 -1.488868e-03 9.841492e-03 3.563332e-03 7.992798e-03 1.835361e-03 5.193333e-03 -2.959512e-03 2.270063e-03 3.088708e-03 1.052685e-02 -1.899877e-03 -9.749698e-03 -1.010402e-02 4.613059e-04 1.244226e-02 1.814316e-02 2.608093e-04 3.344333e-03 1.674092e-02 7.559536e-03
<VARIANCE> 75
 1.356251e+00 8.012782e-01 2.066806e-01 7.508503e-02 6.465863e-02 4.412978e-02 2.384467e-02 1.587941e-02 3.066313e-02 6.995658e-03 1.234338e-02 4.661032e-02 1.033655e-02 5.581134e-03 1.018900e-02 2.011463e-02 1.412082e-02 8.005512e-03 6.903235e-03 1.082726e-02 1.645806e-02 7.263462e-02 9.678993e-02 7.639898e-02 3.308350e-02 6.153335e-02 1.635188e-01 1.751536e-02 1.136997e-02 1.684137e-02 1.048683e-02 8.186520e-03 6.511799e-03 3.967371e-03 3.940042e-03 1.223187e-03 4.066660e-03 2.297444e-03 1.347694e-03 3.453868e-03 2.605117e-03 2.457531e-03 2.208474e-03 1.068871e-03 1.929816e-03 4.381108e-03 6.014478e-03 5.605808e-03 2.791740e-03 1.699660e-03 2.928113e-02 8.056583e-02 1.873220e-02 8.286121e-03 1.612889e-02 1.680059e-02 1.737474e-02 9.772236e-03 7.983936e-03 1.014950e-02 3.177182e-03 7.076301e-03 2.832307e-03 3.691009e-03 6.735464e-03 2.993855e-03 3.594799e-03 7.313132e-03 5.093011e-03 4.007842e-03 7.099897e-03 1.151397e-02 7.244846e-03 5.799195e-03 3.660286e-03
<GCONST> -2.007231e+02
<STREAM> 2
<NUMMIXES> 2
<MIXTURE> 1 5.555559e-01
<MEAN> 1
 5.646266e+00
<VARIANCE> 1
 2.038284e-02
<GCONST> -2.055185e+00
<MIXTURE> 2 4.444441e-01
<MEAN> 0
<VARIANCE> 0
<GCONST> 0.000000e+00
<STREAM> 3
<NUMMIXES> 2
<MIXTURE> 1 4.444442e-01
<MEAN> 1
 4.942247e-04
<VARIANCE> 1
 1.679242e-04
<GCONST> -6.854120e+00
<MIXTURE> 2 5.555557e-01
<MEAN> 0
<VARIANCE> 0
<GCONST> 0.000000e+00
<STREAM> 4
<NUMMIXES> 2
<MIXTURE> 1 4.444448e-01
<MEAN> 1
 7.648353e-04
<VARIANCE> 1
 1.579346e-04
<GCONST> -6.915452e+00
<MIXTURE> 2 5.555551e-01
<MEAN> 0
<VARIANCE> 0
<GCONST> 0.000000e+00
<STATE> 6
<STREAM> 1
<MEAN> 75
 5.882014e+00 8.658717e-01 2.507913e-01 6.738226e-02 3.016069e-03 -2.195750e-01 -4.580261e-01 3.681710e-01 -5.643950e-02 -6.688462e-02 -1.510211e-01 -3.216487e-01 -1.580528e-01 -1.852439e-01 -9.783336e-02 -8.458649e-02 -3.928541e-02 1.588688e-01 -5.901432e-02 3.919269e-02 -5.988475e-02 1.488969e-01 2.467712e-01 2.488545e-01 -4.501979e-02 -7.436927e-02 -1.810319e-02 8.192541e-03 1.486138e-02 1.153165e-02 -1.791396e-02 9.787942e-03 2.490606e-02 2.239204e-03 2.056164e-03 5.119822e-03 2.116954e-02 -1.327797e-03 -5.928944e-03 6.587847e-03 1.468019e-02 1.199748e-02 1.201624e-02 -3.918982e-03 7.123370e-03 -4.409594e-03 -2.070958e-02 -3.043917e-02 -2.371060e-02 -2.098974e-02 -9.547316e-03 5.785726e-03 -4.073117e-03 5.471786e-03 -7.834752e-03 1.562056e-03 6.629088e-03 -3.832052e-03 -6.529874e-03 -1.006859e-03 -2.138229e-03 -2.800051e-03 -4.676464e-03 -2.441315e-03 -5.022633e-03 3.872476e-04 1.055173e-02 1.736043e-03 -5.522433e-03 -8.411860e-03 -8.705700e-03 -3.267420e-03 -2.165074e-03 -1.086691e-03 -1.059683e-03
<VARIANCE> 75
 7.857952e-01 3.954063e-01 6.075357e-01 1.237042e-01 6.906027e-02 4.620684e-02 2.327825e-02 3.704986e-02 8.418816e-02 1.850437e-02 1.010038e-02 3.840294e-02 1.846896e-02 6.079783e-03 5.943238e-03 1.862205e-02 1.975730e-02 8.500760e-03 6.093639e-03 8.484687e-03 2.509216e-02 3.170722e-02 5.769411e-02 4.342778e-02 2.350458e-02 1.696741e-02 2.138543e-02 1.173193e-02 2.826296e-03 4.123083e-03 5.223500e-03 4.920533e-03 2.292406e-03 3.948950e-03 1.847123e-03 1.706115e-03 1.550941e-03 9.505602e-04 1.781823e-03 1.008774e-03 1.409211e-03 2.101670e-03 1.809930e-03 2.376007e-03 2.238322e-03 5.802306e-03 5.362299e-03 6.722526e-03 6.032370e-03 2.371942e-03 1.478304e-02 1.727170e-02 9.120839e-03 6.857516e-03 6.949166e-03 8.088284e-03 1.160525e-02 8.206689e-03 9.148793e-03 4.209714e-03 4.635527e-03 3.905802e-03 2.570691e-03 4.885095e-03 2.684928e-03 3.944817e-03 3.571602e-03 3.793971e-03 5.976476e-03 5.192226e-03 6.439490e-03 6.183758e-03 1.036108e-02 1.006290e-02 4.767919e-03
<GCONST> -2.166936e+02
<STREAM> 2
<NUMMIXES> 2
<MIXTURE> 1 9.500000e-01
<MEAN> 1
 5.800987e+00
<VARIANCE> 1
 3.690184e-02
<GCONST> -1.461617e+00
<MIXTURE> 2 5.000000e-02
<MEAN> 0
<VARIANCE> 0
<GCONST> 0.000000e+00
<STREAM> 3
<NUMMIXES> 2
<MIXTURE> 1 9.500000e-01
<MEAN> 1
 1.284445e-02
<VARIANCE> 1
 2.718768e-03
<GCONST> -4.069699e+00
<MIXTURE> 2 5.000000e-02
<MEAN> 0
<VARIANCE> 0
<GCONST> 0.000000e+00
<STREAM> 4
<NUMMIXES> 2
<MIXTURE> 1 9.500000e-01
<MEAN> 1
 8.020671e-04
<VARIANCE> 1
 7.355620e-03
<GCONST> -3.074414e+00
<MIXTURE> 2 5.000000e-02
<MEAN> 0
<VARIANCE> 0
<GCONST> 0.000000e+00
<TRANSP> 7
 0.000000e+00 1.000000e+00 0.000000e+00 0.000000e+00 0.000000e+00 0.000000e+00 0.000000e+00
 0.000000e+00 0.000000e+00 1.000000e+00 0.000000e+00 0.000000e+00 0.000000e+00 0.000000e+00
 0.000000e+00 0.000000e+00 0.000000e+00 1.000000e+00 0.000000e+00 0.000000e+00 0.000000e+00
 0.000000e+00 0.000000e+00 0.000000e+00 0.000000e+00 1.000000e+00 0.000000e+00 0.000000e+00
 0.000000e+00 0.000000e+00 0.000000e+00 0.000000e+00 0.000000e+00 1.000000e+00 0.000000e+00
 0.000000e+00 0.000000e+00 0.000000e+00 0.000000e+00 0.000000e+00 0.000000e+00 1.000000e+00
 0.000000e+00 0.000000e+00 0.000000e+00 0.000000e+00 0.000000e+00 0.000000e+00 0.000000e+00
<ENDHMM>
~h "e"
<BEGINHMM>
<NUMSTATES> 7
<STATE> 2
<STREAM> 1
<MEAN> 75
 5.663924e+00 1.076561e+00 2.596277e-02 3.931388e-01 -5.626230e-02 -1.929234e-01 -3.122892e-01 1.657283e-01 -1.400043e-01 7.122037e-02 -4.944305e-02 -7.620651e-02 -1.265135e-01 -8.626048e-02 -1.067659e-01 -9.957138e-02 -1.684742e-01 9.699888e-02 -1.068393e-01 -6.262562e-04 5.812177e-02 5.581382e-02 -1.273410e-02 1.353509e-01 -4.894251e-02 9.261569e-02 2.568282e-02 4.035885e-02 2.069817e-02 -1.413011e-02 -9.214544e-03 -2.469482e-03 1.401475e-03 -3.630454e-02 -2.405784e-02 -1.018695e-02 -4.082011e-02 -2.287272e-02 -4.125546e-03 -3.224553e-03 -1.422001e-02 3.579253e-03 -1.456292e-02 -1.400836e-02 -3.581222e-04 -2.372636e-03 -9.238781e-03 -6.952125e-03 3.252388e-02 1.422402e-02 -1.264485e-02 2.797662e-02 1.902993e-03 -1.661414e-02 -5.254566e-03 -1.300559e-02 1.303114e-02 1.462213e-02 -1.218291e-02 -2.217655e-02 -7.608230e-03 -2.360597e-02 -2.918328e-02 2.848645e-03 -1.021135e-02 -8.773764e-04 1.558818e-02 1.119163e-02 -2.126029e-02 -6.583836e-03 -1.113764e-02 -3.387131e-02 -3.157364e-03 3.186087e-02 3.490745e-02
<VARIANCE> 75
 3.724726e+00 2.208004e-01 1.112094e-01 1.462057e-01 1.182423e-01 5.135060e-02 2.565502e-02 4.922893e-02 6.631275e-02 2.047749e-02 1.146019e-02 2.790431e-02 1.049037e-02 1.556606e-02 1.297525e-02 9.458934e-03 1.759837e-02 1.798719e-02 3.189956e-02 2.013456e-02 9.269204e-03 1.076699e-02 4.882614e-03 2.999724e-02 1.486353e-02 1.721836e-02 3.729081e-03 1.023966e-02 5.808566e-03 2.620962e-03 3.626766e-03 1.775742e-03 4.619254e-03 4.682343e-03 4.594746e-03 3.237471e-03 5.662116e-03 2.224623e-03 1.395382e-03 2.949424e-03 1.595264e-03 3.961644e-03 1.609371e-03 2.962392e-03 2.127610e-03 3.762284e-03 1.623388e-03 1.579654e-03 4.477780e-03 3.937536e-03 9.705264e-03 7.676363e-03 6.343663e-03 8.758202e-03 4.971076e-03 3.168345e-03 3.661944e-03 5.155921e-03 3.738651e-03 2.081308e-03 7.430006e-03 5.901624e-03 7.332784e-03 4.931110e-03 4.506167e-03 2.580790e-03 3.422905e-03 1.315016e-03 3.834437e-03 2.381218e-03 6.784905e-03 3.063949e-03 2.666180e-03 6.149657e-03 6.747752e-03
<GCONST> -2.262270e+02
<STREAM> 2
<NUMMIXES> 2
<MIXTURE> 1 3.999968e-01
<MEAN> 1
 5.547402e+00
<VARIANCE> 1
 1.843135e-02
<GCONST> -2.155826e+00
<MIXTURE> 2 6.000032e-01
<MEAN> 0
<VARIANCE> 0
<GCONST> 0.000000e+00
<STREAM> 3
<NUMMIXES> 2
<MIXTURE> 1 2.666627e-01
<MEAN> 1
 -1.042091e-02
<VARIANCE> 1
 7.472219e-04
<GCONST> -5.361271e+00
<MIXTURE> 2 7.333373e-01
<MEAN> 0
<VARIANCE> 0
<GCONST> 0.000000e+00
<STREAM> 4
<NUMMIXES> 2
<MIXTURE> 1 2.666622e-01
<MEAN> 1
 -1.376769e-03
<VARIANCE> 1
 9.155188e-04
<GCONST> -5.158143e+00
<MIXTURE> 2 7.333378e-01
<MEAN> 0
<VARIANCE> 0
<GCONST> 0.000000e+00
<STATE> 3
<STREAM> 1
<MEAN> 75
 5.875871e+00 1.285145e+00 1.283805e-01 2.704389e-01 -9.918851e-02 -2.946579e-01 -2.771061e-01 2.178191e-01 -1.740948e-01 -3.386227e-02 -1.489864e-01 -2.100109e-01 -1.370436e-01 -1.229485e-01 -1.566421e-01 -1.188129e-01 -1.831786e-01 6.669402e-02 -1.604267e-01 -5.649538e-02 5.929195e-03 2.289110e-02 1.298666e-02 2.684020e-01 3.595330e-02 5.180229e-02 6.482811e-02 -1.554079e-02 -4.478987e-02 1.500527e-02 6.162864e-03 2.017224e-03 3.436788e-02 -8.504896e-03 -9.281702e-03 -2.416623e-02 -1.703525e-02 -8.101054e-03 -2.971613e-02 -2.018457e-02 2.785802e-03 1.056177e-02 1.615926e-03 -1.168878e-02 6.164233e-03 -1.862041e-02 -3.304661e-02 -2.379398e-02 -8.855786e-03 6.564129e-03 -7.698058e-03 -3.990006e-02 -1.103138e-02 3.251141e-02 8.427150e-03 1.165932e-02 -1.530684e-02 -2.047098e-02 -1.891802e-02 1.643826e-02 -1.228788e-02 6.854043e-03 5.374887e-03 -8.612740e-03 1.450311e-02 2.017950e-02 -8.853090e-03 1.344618e-02 2.124305e-02 2.077359e-02 1.186990e-02 7.090841e-03 4.514752e-03 -2.649753e-02 -5.082854e-02
<VARIANCE> 75
 3.969774e+00 1.530207e-01 1.230356e-01 1.709015e-01 1.321587e-01 8.988590e-02 3.389253e-02 4.755854e-02 4.351855e-02 4.755107e-02 1.900334e-02 3.106535e-02 1.060099e-02 2.268741e-02 1.063435e-02 9.636835e-03 3.164157e-02 8.192703e-03 3.677916e-02 3.369682e-02 8.769485e-03 1.009625e-02 1.676112e-02 4.064690e-02 9.778171e-03 1.748908e-02 8.809336e-03 7.079874e-03 6.259025e-03 5.842954e-03 3.307872e-03 5.092429e-03 1.249067e-03 2.445109e-03 2.538593e-03 1.193813e-03 2.194563e-03 2.752613e-03 3.023732e-03 8.441996e-04 1.393022e-03 2.330377e-03 2.307155e-03 8.450027e-04 3.072176e-03 1.747979e-03 2.340104e-03 2.619107e-03 4.790240e-03 4.431359e-03 4.423507e-03 5.914693e-03 1.010922e-02 9.564838e-03 7.256397e-03 2.936500e-03 9.193426e-03 2.462211e-03 3.949358e-03 6.228104e-03 6.920748e-03 3.114522e-03 5.343045e-03 3.728973e-03 2.355863e-03 4.547092e-03 7.992691e-03 5.840776e-03 7.027832e-03 5.183596e-03 9.172965e-03 2.589903e-03 6.526990e-03 5.424842e-03 4.961564e-03
<GCONST> -2.219072e+02
<STREAM> 2
<NUMMIXES> 2
<MIXTURE> 1 7.999999e-01
<MEAN> 1
 5.543661e+00
<VARIANCE> 1
 9.926567e-03
<GCONST> -2.774664e+00
<MIXTURE> 2 2.000001e-01
<MEAN> 0
<VARIANCE> 0
<GCONST> 0.000000e+00
<STREAM> 3
<NUMMIXES> 2
<MIXTURE> 1 8.000002e-01
<MEAN> 1
 -1.462000e-02
<VARIANCE> 1
 1.935038e-04
<GCONST> -6.712336e+00
<MIXTURE> 2 1.999999e-01
<MEAN> 0
<VARIANCE> 0
<GCONST> 0.000000e+00
<STREAM> 4
<NUMMIXES> 2
<MIXTURE> 1 8.000004e-01
<MEAN> 1
 -1.914939e-04
<VARIANCE> 1
 1.991243e-04
<GCONST> -6.683704e+00
<MIXTURE> 2 1.999996e-01
<MEAN> 0
<VARIANCE> 0
<GCONST> 0.000000e+00
<STATE> 4
<STREAM> 1
<MEAN> 75
 6.498351e+00 1.305851e+00 1.340657e-01 2.680438e-01 -1.265107e-01 -2.250304e-01 -3.172568e-01 1.703591e-01 -2.106229e-01 3.586662e-02 -1.852587e-01 -2.289644e-01 -2.119012e-01 -2.113697e-01 -1.833556e-01 -1.071713e-01 -2.139357e-01 8.062967e-02 -1.914195e-01 -2.514840e-02 2.176783e-02 -7.876233e-02 -9.015438e-02 1.917343e-01 -2.035513e-02 1.848375e-02 -2.943748e-02 -1.302758e-03 1.683378e-02 3.999109e-03 4.550358e-03 1.906089e-02 -1.916679e-03 3.246193e-03 -5.064123e-03 -7.341691e-03 -1.907102e-03 -6.026708e-03 6.614722e-04 8.650727e-03 6.643574e-03 -8.658262e-03 -1.341262e-02 1.614944e-02 8.404508e-04 -2.443787e-04 -2.320459e-03 -5.690210e-03 -1.846249e-03 9.495264e-04 -1.538356e-02 9.033511e-03 7.654192e-03 -1.332111e-02 -5.851991e-04 -1.758662e-02 1.273798e-02 -5.751527e-03 2.843126e-02 1.084138e-02 -3.828033e-03 6.694336e-03 2.638556e-02 1.370862e-02 9.241458e-03 -1.147567e-02 -1.932821e-02 -1.855750e-02 9.484218e-03 -7.631880e-03 -3.612470e-03 2.351624e-02 1.244404e-02 -9.470805e-03 -1.647272e-02
<VARIANCE> 75
 3.495523e+00 9.472144e-02 1.827556e-01 1.906997e-01 9.672765e-02 4.397831e-02 2.881605e-02 3.966626e-02 3.622745e-02 5.047620e-02 1.501448e-02 2.070580e-02 7.442362e-03 3.040395e-02 1.244862e-02 1.078123e-02 2.749318e-02 1.396224e-02 3.474985e-02 1.625270e-02 6.676084e-03 6.824297e-03 7.764225e-03 3.477812e-02 1.636623e-02 4.071759e-03 3.182212e-03 2.694788e-03 1.452094e-03 3.097973e-03 1.414387e-03 1.326229e-03 1.379164e-03 1.038669e-03 1.147061e-03 1.979471e-03 1.097943e-03 1.312460e-03 2.622056e-03 1.217522e-03 8.898837e-04 1.463393e-03 4.386116e-03 2.034169e-03 1.406929e-03 1.881417e-03 1.215093e-03 1.634414e-03 2.714574e-03 2.463361e-03 2.460561e-03 4.064694e-03 2.483009e-03 3.098028e-03 4.740721e-03 3.809215e-03 2.743963e-03 3.139045e-03 3.124150e-03 2.934657e-03 1.963868e-03 2.748489e-03 2.590236e-03 2.095199e-03 3.082003e-03 3.422525e-03 3.914305e-03 3.305381e-03 2.466768e-03 2.797903e-03 2.506091e-03 1.468952e-03 4.435395e-03 6.572975e-03 6.957514e-03
<GCONST> -2.507531e+02
<STREAM> 2
<NUMMIXES> 2
<MIXTURE> 1 8.636706e-01
<MEAN> 1
 5.496288e+00
<VARIANCE> 1
 5.611813e-03
<GCONST> -3.345004e+00
<MIXTURE> 2 1.363293e-01
<MEAN> 0
<VARIANCE> 0
<GCONST> 0.000000e+00
<STREAM> 3
<NUMMIXES> 2
<MIXTURE> 1 8.636707e-01
<MEAN> 1
 -4.472813e-03
<VARIANCE> 1
 4.040288e-05
<GCONST> -8.278732e+00
<MIXTURE> 2 1.363293e-01
<MEAN> 0
<VARIANCE> 0
<GCONST> 0.000000e+00
<STREAM> 4
<NUMMIXES> 2
<MIXTURE> 1 8.636706e-01
<MEAN> 1
 -1.083409e-04
<VARIANCE> 1
 5.245142e-05
<GCONST> -8.017746e+00
<MIXTURE> 2 1.363293e-01
<MEAN> 0
<VARIANCE> 0
<GCONST> 0.000000e+00
<STATE> 5
<STREAM> 1
<MEAN> 75
 6.628783e+00 1.393217e+00 -7.190972e-02 1.572726e-01 9.853183e-02 -1.653463e-01 -2.991597e-01 1.563265e-01 -1.197622e-01 -6.178956e-02 -2.741803e-01 -3.192378e-01 5.281329e-04 -2.248728e-01 -2.711279e-01 -2.634121e-02 -2.215918e-01 -1.152326e-02 -9.743114e-02 -1.751726e-01 -1.181119e-01 -4.368216e-02 -9.563715e-02 7.966828e-02 -9.167460e-02 -1.824696e-02 -4.895100e-03 -2.265884e-03 6.644036e-03 2.790343e-03 5.493869e-04 7.175732e-03 3.469037e-03 2.297526e-03 1.635469e-03 -8.509709e-03 5.231343e-03 1.422963e-02 -1.307473e-02 1.257834e-03 -7.045924e-03 -5.433502e-03 -1.155795e-03 6.985468e-04 -8.798544e-04 -1.152514e-02 -3.619329e-03 8.051316e-03 -1.180385e-02 -1.752325e-02 -1.134218e-02 2.744563e-03 -3.344164e-03 -4.078687e-03 -3.642979e-03 7.515316e-03 -9.842153e-03 2.556112e-03 -2.001498e-03 7.812118e-06 2.399688e-03 2.792452e-04 -2.307449e-03 -7.127197e-04 -6.203081e-03 -2.030454e-03 8.898915e-06 4.308586e-03 -3.533126e-03 -1.011451e-02 3.326519e-03 -2.175010e-05 -1.737698e-03 -6.019093e-03 4.848947e-03
<VARIANCE> 75
 3.148582e+00 1.724692e-01 3.377187e-01 9.096377e-02 3.465398e-02 1.854203e-02 3.589866e-02 4.907366e-02 1.275638e-02 1.307621e-02 2.831352e-02 3.089675e-02 2.703370e-02 1.952692e-02 2.562934e-02 2.056641e-02 1.762748e-02 1.242263e-02 1.981744e-02 2.184898e-02 9.134968e-03 6.116351e-03 3.269184e-03 1.305515e-02 6.046285e-03 4.357929e-03 1.615379e-03 2.118526e-03 2.281772e-03 1.836123e-03 1.070466e-03 1.108994e-03 1.578758e-03 1.029864e-03 1.234987e-03 1.423034e-03 8.777038e-04 1.397916e-03 5.575775e-04 1.469945e-03 1.261739e-03 1.418525e-03 8.626390e-04 1.412493e-03 1.035145e-03 1.149360e-03 6.917306e-04 7.254838e-04 7.094397e-04 9.051205e-04 1.306914e-03 3.156008e-03 3.613691e-03 2.748698e-03 2.697732e-03 2.018328e-03 1.948608e-03 2.749447e-03 2.244665e-03 2.129668e-03 1.779442e-03 1.078492e-03 1.171215e-03 1.145699e-03 2.196172e-03 1.703632e-03 1.697036e-03 2.021773e-03 1.654361e-03 3.020634e-03 1.723451e-03 1.863447e-03 1.191799e-03 1.675651e-03 1.117536e-03
<GCONST> -2.763906e+02
<STREAM> 2
<NUMMIXES> 2
<MIXTURE> 1 9.249635e-01
<MEAN> 1
 5.370238e+00
<VARIANCE> 1
 9.087455e-03
<GCONST> -2.862983e+00
<MIXTURE> 2 7.503648e-02
<MEAN> 0
<VARIANCE> 0
<GCONST> 0.000000e+00
<STREAM> 3
<NUMMIXES> 2
<MIXTURE> 1 8.999520e-01
<MEAN> 1
 -5.725214e-03
<VARIANCE> 1
 3.214962e-05
<GCONST> -8.507233e+00
<MIXTURE> 2 1.000480e-01
<MEAN> 0
<VARIANCE> 0
<GCONST> 0.000000e+00
<STREAM> 4
<NUMMIXES> 2
<MIXTURE> 1 8.999520e-01
<MEAN> 1
 1.810147e-03
<VARIANCE> 1
 4.310235e-05
<GCONST> -8.214056e+00
<MIXTURE> 2 1.000480e-01
<MEAN> 0
<VARIANCE> 0
<GCONST> 0.000000e+00
<STATE> 6
<STREAM> 1
<MEAN> 75
 6.091136e+00 1.455870e+00 5.050293e-02 2.421359e-01 -1.644694e-02 -1.194816e-01 -2.633850e-01 1.056989e-01 -1.121250e-01 -4.178393e-02 -2.633805e-01 -2.514950e-01 -1.125671e-01 -2.788289e-01 -1.368075e-01 -1.184307e-01 -2.278832e-01 4.213312e-02 -1.376374e-01 -5.418364e-02 -1.138212e-01 -3.588128e-02 -1.422989e-02 8.898925e-02 -8.723277e-02 -1.524719e-01 8.074800e-02 2.803259e-02 -5.685341e-02 6.696542e-03 4.260598e-02 9.538630e-03 9.411189e-04 1.038866e-02 1.256117e-03 5.724684e-03 3.393693e-03 -1.341042e-03 4.140822e-03 1.660819e-03 -5.753080e-03 2.105160e-02 -4.121062e-03 1.904087e-02 1.102908e-02 -2.036385e-02 1.801864e-02 1.766762e-02 -1.868336e-02 6.769135e-03 -2.783929e-02 -1.659648e-03 1.856822e-02 -1.794019e-02 8.879818e-03 2.391224e-02 1.171282e-02 9.836698e-03 -8.494101e-03 -4.745299e-03 1.613822e-02 1.330655e-03 -1.355933e-02 5.491508e-03 8.880403e-03 1.467834e-02 2.165901e-02 -8.246860e-03 -3.862199e-03 2.247993e-02 5.008595e-03 -3.751064e-03 9.758498e-03 9.426279e-03 1.883645e-02
<VARIANCE> 75
 3.056809e+00 1.139514e-01 1.364728e-01 1.012549e-01 6.155430e-02 2.568790e-02 1.744744e-02 8.530932e-02 1.675317e-02 7.953178e-03 2.244972e-02 2.556741e-02 1.211704e-02 3.438771e-02 1.008919e-02 1.717683e-02 1.897729e-02 1.487402e-02 3.449063e-02 8.914310e-03 8.635539e-03 8.275983e-03 7.378877e-03 1.591836e-02 1.178381e-02 1.879591e-02 8.618749e-03 7.400416e-03 3.519104e-03 9.659482e-03 2.752602e-03 2.710697e-03 4.757445e-03 2.226577e-03 2.520037e-03 8.980483e-04 2.210907e-03 1.971518e-03 8.568705e-04 2.879908e-03 1.231625e-03 1.793036e-03 8.814542e-04 7.923706e-04 1.267661e-03 2.016162e-03 1.992674e-03 8.698226e-04 1.346540e-03 2.184280e-03 7.483039e-03 8.917658e-03 4.407411e-03 3.689654e-03 6.691440e-03 2.902092e-03 4.025909e-03 5.295076e-03 4.459847e-03 4.474698e-03 4.773005e-03 3.263007e-03 4.529312e-03 1.983340e-03 3.053306e-03 3.479901e-03 2.292753e-03 1.648038e-03 1.167250e-03 4.995326e-03 3.649393e-03 4.443561e-03 3.439395e-03 5.383774e-03 4.572926e-03
<GCONST> -2.431611e+02
<STREAM> 2
<NUMMIXES> 2
<MIXTURE> 1 8.096406e-01
<MEAN> 1
 5.456935e+00
<VARIANCE> 1
 7.056311e-03
<GCONST> -3.115956e+00
<MIXTURE> 2 1.903594e-01
<MEAN> 0
<VARIANCE> 0
<GCONST> 0.000000e+00
<STREAM> 3
<NUMMIXES> 2
<MIXTURE> 1 8.096407e-01
<MEAN> 1
 7.992788e-03
<VARIANCE> 1
 7.338173e-04
<GCONST> -5.379374e+00
<MIXTURE> 2 1.903594e-01
<MEAN> 0
<VARIANCE> 0
<GCONST> 0.000000e+00
<STREAM> 4
<NUMMIXES> 2
<MIXTURE> 1 8.096402e-01
<MEAN> 1
 1.681573e-03
<VARIANCE> 1
 3.176666e-03
<GCONST> -3.914046e+00
<MIXTURE> 2 1.903598e-01
<MEAN> 0
<VARIANCE> 0
<GCONST> 0.000000e+00
<TRANSP> 7
 0.000000e+00 1.000000e+00 0.000000e+00 0.000000e+00 0.000000e+00 0.000000e+00 0.000000e+00
 0.000000e+00 0.000000e+00 1.000000e+00 0.000000e+00 0.000000e+00 0.000000e+00 0.000000e+00
 0.000000e+00 0.000000e+00 0.000000e+00 1.000000e+00 0.000000e+00 0.000000e+00 0.000000e+00
 0.000000e+00 0.000000e+00 0.000000e+00 0.000000e+00 1.000000e+00 0.000000e+00 0.000000e+00
 0.000000e+00 0.000000e+00 0.000000e+00 0.000000e+00 0.000000e+00 1.000000e+00 0.000000e+00
 0.000000e+00 0.000000e+00 0.000000e+00 0.000000e+00 0.000000e+00 0.000000e+00 1.000000e+00
 0.000000e+00 0.000000e+00 0.000000e+00 0.000000e+00 0.000000e+00 0.000000e+00 0.000000e+00
<ENDHMM>
~h "g"
<BEGINHMM>
<NUMSTATES> 7
<STATE> 2
<STREAM> 1
<MEAN> 75
 6.954446e+00 1.361936e+00 1.121265e-01 3.896570e-01 -1.351612e-01 -2.752703e-01 -4.475943e-01 3.513819e-01 -2.888968e-01 -3.290989e-01 -1.936630e-01 -2.029865e-01 -3.370260e-01 -2.020605e-01 -1.503969e-01 -2.497037e-01 -1.207993e-01 -1.987397e-02 -3.500533e-01 -8.366384e-02 -1.049415e-01 -6.953811e-02 6.427431e-03 -3.928043e-02 -1.256078e-01 1.220067e-01 -7.629678e-03 -9.279330e-02 -2.411544e-02 4.352430e-03 -2.958314e-02 2.356152e-03 1.785700e-02 1.146061e-02 1.492355e-02 -2.382267e-02 -7.117502e-03 2.165886e-02 -1.258703e-02 2.801787e-03 9.435381e-03 -1.928706e-02 1.559854e-02 2.484748e-03 -1.350308e-02 1.445533e-03 -6.305970e-05 -1.904683e-03 -2.142641e-02 -8.076460e-03 -2.686817e-02 5.325067e-03 1.153040e-02 4.171116e-03 5.218242e-03 6.494482e-03 4.240219e-03 -1.177981e-02 8.697955e-03 1.653367e-02 -2.190841e-03 -1.772156e-03 1.313200e-02 -1.291148e-02 4.694867e-03 6.522333e-03 9.146900e-04 -1.922028e-03 1.336536e-02 -5.678302e-03 2.554034e-03 1.067660e-02 -3.102730e-03 -2.084143e-03 5.807901e-03
<VARIANCE> 75
 2.593324e-01 1.768263e-02 1.401176e-01 1.017489e-01 3.088535e-02 1.415472e-02 4.540505e-03 5.428815e-02 4.048393e-03 1.011302e-02 8.471322e-03 6.901392e-03 1.756308e-02 2.547692e-02 2.971710e-02 4.395841e-02 8.205856e-03 9.529751e-03 9.337232e-03 1.361130e-02 3.403722e-03 6.067398e-03 9.271628e-03 2.107280e-02 8.269673e-03 7.515728e-03 2.541302e-03 4.282102e-03 1.112705e-03 1.071859e-03 2.676215e-03 1.271556e-03 2.237851e-03 5.262357e-04 1.341561e-03 5.100234e-04 8.063358e-04 2.696314e-03 2.122929e-03 2.136328e-03 3.381405e-03 8.025231e-04 6.651374e-04 1.104278e-03 1.019697e-03 1.371821e-03 1.513876e-03 2.886328e-03 1.595774e-03 1.021471e-03 7.199140e-04 2.275877e-03 2.778007e-03 1.823897e-03 2.916274e-03 2.688394e-03 9.234647e-04 2.346943e-03 2.365719e-03 2.328292e-03 1.101142e-03 9.956226e-04 1.052093e-03 1.970654e-03 1.363355e-03 1.351596e-03 7.667178e-04 1.096948e-03 8.698967e-04 8.465467e-04 2.297118e-03 9.531734e-04 1.478318e-03 8.519780e-04 1.569521e-03
<GCONST> -2.900389e+02
<STREAM> 2
<NUMMIXES> 2
<MIXTURE> 1 9.500000e-01
<MEAN> 1
 5.449194e+00
<VARIANCE> 1
 6.599261e-04
<GCONST> -5.485506e+00
<MIXTURE> 2 5.000000e-02
<MEAN> 0
<VARIANCE> 0
<GCONST> 0.000000e+00
<STREAM> 3
<NUMMIXES> 2
<MIXTURE> 1 9.500000e-01
<MEAN> 1
 -5.302194e-03
<VARIANCE> 1
 5.083979e-05
<GCONST> -8.048954e+00
<MIXTURE> 2 5.000000e-02
<MEAN> 0
<VARIANCE> 0
<GCONST> 0.000000e+00
<STREAM> 4
<NUMMIXES> 2
<MIXTURE> 1 9.500000e-01
<MEAN> 1
 -5.210021e-04
<VARIANCE> 1
 3.192723e-05
<GCONST> -8.514174e+00
<MIXTURE> 2 5.000000e-02
<MEAN> 0
<VARIANCE> 0
<GCONST> 0.000000e+00
<STATE> 3
<STREAM> 1
<MEAN> 75
 7.454481e+00 1.323752e+00 -4.111354e-01 2.926065e-01 -1.901287e-02 -2.998093e-01 -3.497433e-01 3.154281e-01 -1.821000e-01 -7.303096e-03 -3.322114e-01 -4.200593e-01 1.399473e-01 -2.573719e-01 -3.566497e-01 -2.924609e-02 -2.902192e-01 1.824789e-01 -2.714480e-01 -2.512699e-01 -6.088601e-02 -3.200141e-02 -4.186077e-02 6.999000e-02 -3.403670e-01 -1.835863e-03 1.041047e-02 -1.101892e-03 -8.635486e-03 3.349575e-03 -7.911555e-03 8.514767e-03 -1.478954e-02 1.855295e-02 3.712125e-03 -1.578239e-03 -7.908416e-03 8.177774e-03 1.377438e-02 -6.027096e-03 -8.795153e-03 1.979236e-03 1.071038e-02 3.528664e-03 4.367060e-05 -9.166872e-03 -7.612454e-03 -1.359769e-03 -3.040543e-03 2.419995e-03 -6.777497e-03 -8.300195e-03 4.098960e-03 -3.785949e-04 -4.806854e-03 -3.961713e-04 -6.281725e-03 -7.972786e-03 -8.564396e-04 -5.338667e-03 -3.975140e-03 6.779489e-03 -7.886861e-03 -7.201269e-03 2.865192e-03 -5.080651e-03 -1.872590e-03 -2.047008e-03 -5.551813e-03 2.141015e-03 2.666366e-04 -1.818189e-05 5.224145e-04 -2.760352e-03 -3.489708e-03
<VARIANCE> 75
 3.912040e-02 1.702050e-02 3.363718e-02 4.498172e-02 1.785702e-02 8.741238e-03 8.682596e-03 2.330526e-02 1.112731e-02 1.666969e-02 1.863091e-02 2.714474e-02 1.376306e-02 3.297184e-02 6.896115e-03 1.078309e-02 5.152449e-03 1.930072e-02 5.528145e-03 5.396606e-03 7.959471e-03 4.900680e-03 5.188995e-03 1.266882e-02 2.133650e-02 6.998457e-04 4.158285e-04 1.640003e-03 1.306943e-03 4.058223e-04 8.203252e-04 6.500676e-04 1.252390e-03 9.726001e-04 1.325297e-03 1.274021e-03 1.525042e-03 1.094400e-03 6.781020e-04 4.330861e-04 7.722623e-04 5.539324e-04 2.842200e-04 9.732201e-04 1.902180e-04 4.349273e-04 9.588925e-04 1.250004e-03 1.476049e-03 1.292658e-03 7.137344e-04 2.391156e-03 1.177542e-03 1.308152e-03 8.456861e-04 1.069209e-03 7.369220e-04 2.384669e-03 9.623933e-04 7.081734e-04 8.198447e-04 6.908903e-04 1.536868e-03 1.342996e-03 8.118273e-04 6.162218e-04 9.990432e-04 1.148364e-03 1.197932e-03 5.737233e-04 6.652861e-04 1.201811e-03 6.841771e-04 9.844513e-04 2.069131e-03
<GCONST> -3.206902e+02
<STREAM> 2
<NUMMIXES> 2
<MIXTURE> 1 9.500000e-01
<MEAN> 1
 5.399010e+00
<VARIANCE> 1
 7.571447e-04
<GCONST> -5.348079e+00
<MIXTURE> 2 5.000000e-02
<MEAN> 0
<VARIANCE> 0
<GCONST> 0.000000e+00
<STREAM> 3
<NUMMIXES> 2
<MIXTURE> 1 9.500000e-01
<MEAN> 1
 -1.992736e-03
<VARIANCE> 1
 2.126449e-05
<GCONST> -8.920595e+00
<MIXTURE> 2 5.000000e-02
<MEAN> 0
<VARIANCE> 0
<GCONST> 0.000000e+00
<STREAM> 4
<NUMMIXES> 2
<MIXTURE> 1 9.500000e-01
<MEAN> 1
 8.609663e-04
<VARIANCE> 1
 1.944087e-05
<GCONST> -9.010256e+00
<MIXTURE> 2 5.000000e-02
<MEAN> 0
<VARIANCE> 0
<GCONST> 0.000000e+00
<STATE> 4
<STREAM> 1
<MEAN> 75
 6.313562e+00 1.269535e+00 5.180694e-01 1.974806e-01 1.079152e-01 4.490639e-02 -4.361008e-01 -1.556919e-03 -7.332225e-02 -8.766293e-02 -2.080895e-01 -3.154787e-01 -1.334437e-01 -1.172014e-01 -2.918685e-01 -1.653472e-01 -1.849422e-01 -4.029907e-03 -1.758034e-01 -9.470319e-02 -1.419466e-01 -2.838247e-02 -2.988259e-02 -4.550637e-02 -1.102017e-01 -5.801396e-02 2.060926e-02 5.784611e-02 3.792352e-03 -2.246872e-02 2.667289e-02 7.631752e-03 -1.259575e-02 -1.929921e-02 -2.885026e-04 2.800336e-04 1.067432e-02 -2.818122e-03 -1.269063e-02 1.625412e-02 9.372595e-03 -3.271211e-03 -6.247787e-03 1.968914e-03 -6.790334e-03 -8.511337e-05 -1.978399e-03 -7.913257e-03 1.099487e-02 -7.529738e-04 9.674564e-03 3.501342e-03 4.918463e-03 1.820222e-03 -1.320071e-03 8.207596e-04 4.992211e-03 8.447172e-03 -4.453974e-03 1.207919e-03 9.273405e-03 -1.984148e-03 1.026098e-03 3.236224e-03 3.796141e-03 7.108235e-03 1.496847e-03 2.814409e-03 1.218048e-03 4.249313e-03 1.134878e-05 -1.602145e-04 3.027911e-03 9.136828e-03 6.199848e-04
<VARIANCE> 75
 7.423247e-01 1.987331e-01 3.082860e-01 1.394750e-01 4.258940e-02 5.178891e-02 1.513881e-02 2.413335e-02 2.698631e-02 1.743286e-02 1.115867e-02 3.088308e-03 6.805925e-03 1.640453e-02 1.770748e-02 1.903164e-02 6.001567e-03 4.917108e-02 2.343038e-02 2.125228e-02 1.294844e-02 6.708553e-03 1.139719e-02 1.077946e-02 1.016802e-02 4.341646e-02 1.420906e-02 1.284490e-02 9.349161e-03 3.174213e-03 4.350381e-03 2.448216e-03 4.387958e-03 1.276464e-03 2.213833e-03 2.295158e-03 1.790804e-03 1.054106e-03 2.272124e-03 3.078919e-03 3.266840e-03 1.621282e-03 2.016362e-03 2.383374e-03 3.345566e-03 2.371633e-03 2.244159e-03 4.280806e-03 2.865999e-03 2.039093e-03 1.026979e-02 1.091135e-02 9.088432e-03 7.404426e-03 4.680869e-03 4.863020e-03 4.235437e-03 4.253529e-03 2.758466e-03 3.657652e-03 3.709808e-03 5.580918e-03 1.837748e-03 3.286337e-03 4.896825e-03 5.935016e-03 6.097334e-03 3.298106e-03 4.290971e-03 5.810629e-03 4.080938e-03 3.062124e-03 9.130277e-03 3.518157e-03 5.157881e-03
<GCONST> -2.310435e+02
<STREAM> 2
<NUMMIXES> 2
<MIXTURE> 1 9.500000e-01
<MEAN> 1
 5.329194e+00
<VARIANCE> 1
 8.854039e-03
<GCONST> -2.889004e+00
<MIXTURE> 2 5.000000e-02
<MEAN> 0
<VARIANCE> 0
<GCONST> 0.000000e+00
<STREAM> 3
<NUMMIXES> 2
<MIXTURE> 1 9.500000e-01
<MEAN> 1
 -1.259038e-04
<VARIANCE> 1
 7.138376e-04
<GCONST> -5.406978e+00
<MIXTURE> 2 5.000000e-02
<MEAN> 0
<VARIANCE> 0
<GCONST> 0.000000e+00
<STREAM> 4
<NUMMIXES> 2
<MIXTURE> 1 9.500000e-01
<MEAN> 1
 -2.460605e-04
<VARIANCE> 1
 3.703431e-04
<GCONST> -6.063204e+00
<MIXTURE> 2 5.000000e-02
<MEAN> 0
<VARIANCE> 0
<GCONST> 0.000000e+00
<STATE> 5
<STREAM> 1
<MEAN> 75
 6.611126e+00 1.776560e+00 6.831803e-01 5.912110e-02 -2.693321e-01 1.084952e-01 -2.342277e-01 -2.761220e-01 -3.763086e-01 -2.519732e-01 -1.162863e-01 -2.049646e-01 -1.191844e-01 -2.079733e-01 -1.742398e-01 1.866400e-02 -1.435610e-01 -8.053491e-02 -2.482462e-01 -1.236609e-01 -2.256286e-01 -5.389902e-02 -1.495113e-01 -3.022731e-02 -1.340342e-01 -4.677945e-02 3.299135e-03 1.036470e-02 2.328085e-02 8.379316e-03 -8.613869e-04 -4.694918e-03 -6.307430e-03 -6.435355e-03 -1.098830e-02 3.420525e-03 -8.648154e-03 -2.422866e-03 4.235404e-04 2.986862e-03 3.622466e-03 7.057507e-03 5.055031e-03 -5.170879e-03 9.409206e-03 -4.270887e-03 -1.347899e-04 -6.099003e-03 -1.447272e-02 -2.008914e-03 -1.846198e-02 -1.058492e-03 -4.315325e-03 3.572610e-04 8.746656e-03 -4.181282e-03 -5.344791e-03 -7.262030e-04 1.791660e-03 -1.695295e-03 -4.573139e-03 -5.811725e-03 -1.597123e-04 -4.201186e-04 -4.738582e-03 -4.101121e-03 4.152380e-03 -1.894397e-03 2.683038e-03 -6.860395e-03 1.255650e-03 -4.174117e-03 -3.726391e-04 -2.420546e-03 -2.808703e-04
<VARIANCE> 75
 2.675790e-01 5.316108e-02 2.283959e-02 3.936536e-02 6.504707e-02 4.489286e-02 1.648484e-02 6.595819e-03 2.148780e-02 3.311589e-02 1.520108e-02 1.704427e-02 8.040752e-03 2.426937e-02 3.359662e-03 2.383278e-02 4.197949e-02 8.721028e-03 5.250080e-03 5.806127e-03 2.654613e-02 5.033720e-02 1.086883e-02 1.265262e-02 2.960194e-02 6.989946e-03 2.711809e-03 1.783987e-03 4.959793e-04 1.668521e-03 1.180395e-03 8.196848e-04 5.510274e-04 7.680339e-04 3.887100e-04 9.908543e-04 8.239842e-04 8.409389e-04 9.639813e-04 5.835461e-04 6.188581e-04 7.954913e-04 8.043649e-04 6.012279e-04 1.113745e-03 8.880486e-04 1.036577e-03 6.961860e-04 1.172208e-03 1.026858e-03 2.689866e-03 3.291492e-03 2.071608e-03 1.484994e-03 2.106909e-03 1.915163e-03 1.630823e-03 1.483482e-03 8.416372e-04 1.580720e-03 1.420486e-03 5.495465e-04 1.053853e-03 1.886428e-03 1.306014e-03 2.016967e-03 1.305691e-03 1.857908e-03 1.466382e-03 2.294450e-03 1.991045e-03 2.316227e-03 2.327102e-03 3.529903e-03 1.813365e-03
<GCONST> -2.920366e+02
<STREAM> 2
<NUMMIXES> 2
<MIXTURE> 1 9.500000e-01
<MEAN> 1
 5.370955e+00
<VARIANCE> 1
 6.901570e-03
<GCONST> -3.138129e+00
<MIXTURE> 2 5.000000e-02
<MEAN> 0
<VARIANCE> 0
<GCONST> 0.000000e+00
<STREAM> 3
<NUMMIXES> 2
<MIXTURE> 1 9.500000e-01
<MEAN> 1
 -6.765556e-03
<VARIANCE> 1
 3.988771e-05
<GCONST> -8.291565e+00
<MIXTURE> 2 5.000000e-02
<MEAN> 0
<VARIANCE> 0
<GCONST> 0.000000e+00
<STREAM> 4
<NUMMIXES> 2
<MIXTURE> 1 9.500000e-01
<MEAN> 1
 -7.334460e-04
<VARIANCE> 1
 1.944087e-05
<GCONST> -9.010256e+00
<MIXTURE> 2 5.000000e-02
<MEAN> 0
<VARIANCE> 0
<GCONST> 0.000000e+00
<STATE> 6
<STREAM> 1
<MEAN> 75
 5.031713e+00 2.018754e+00 8.161125e-01 3.529657e-01 4.722258e-02 3.637003e-02 -2.829573e-01 -2.059249e-01 -3.043087e-01 -2.693873e-01 -6.493545e-02 -1.852348e-01 -4.037040e-02 -7.357178e-02 -2.464589e-01 7.343790e-02 -1.354432e-01 2.292065e-02 -1.285382e-01 -1.728337e-01 -2.340192e-01 -5.083522e-02 -1.251330e-01 -4.018676e-02 -9.877988e-02 -1.756076e-01 8.563912e-03 1.846925e-04 2.868295e-02 4.279326e-02 1.791927e-02 1.315674e-02 7.652042e-03 1.996152e-02 1.244898e-02 9.540850e-03 2.055310e-02 9.499571e-03 2.189228e-03 3.323844e-03 -1.497559e-02 8.095262e-05 -1.117921e-02 6.780426e-03 -3.517128e-03 8.746902e-03 -6.737133e-04 1.450678e-02 1.438028e-03 -5.256334e-03 1.884062e-02 4.707768e-03 -1.825924e-02 -2.223465e-02 -9.600323e-03 1.123424e-02 1.295412e-02 -2.450749e-03 -6.538007e-03 7.861219e-04 4.753022e-03 7.595947e-03 -6.738823e-04 6.199864e-03 1.988407e-03 2.224612e-03 4.620436e-03 4.969679e-03 -1.197368e-02 -7.940844e-04 -1.006118e-03 8.388006e-03 2.610403e-03 -2.695133e-04 1.580818e-03
<VARIANCE> 75
 6.703140e-01 9.249060e-02 4.283332e-02 9.803741e-02 5.377366e-02 3.407633e-02 3.408837e-02 3.296449e-02 2.039420e-02 9.845041e-03 1.672756e-02 7.932291e-02 8.920158e-03 8.709618e-03 6.580725e-03 2.251374e-02 1.032782e-02 1.413881e-02 7.560145e-03 2.487676e-02 2.138581e-02 7.119810e-03 9.305995e-03 1.738192e-02 1.099745e-02 1.857429e-02 6.864623e-03 8.739532e-03 5.063693e-03 3.124114e-03 3.090911e-03 2.389753e-03 3.927433e-03 2.339859e-03 1.482616e-03 3.411748e-03 3.280369e-03 1.683001e-03 1.244152e-03 2.600076e-03 1.692897e-03 2.474414e-03 2.657336e-03 3.291813e-03 1.647546e-03 2.407256e-03 2.663020e-03 2.454218e-03 9.702058e-04 2.015909e-03 4.032264e-02 2.736977e-02 2.317532e-02 2.055364e-02 4.414589e-03 7.988365e-03 7.886158e-03 6.322470e-03 5.703166e-03 3.343289e-03 6.219240e-03 7.256967e-03 4.396860e-03 3.348650e-03 8.379358e-03 7.786580e-03 9.016780e-03 7.404300e-03 5.075460e-03 7.136681e-03 8.672732e-03 6.654843e-03 6.711274e-03 4.293188e-03 5.165734e-03
<GCONST> -2.246072e+02
<STREAM> 2
<NUMMIXES> 2
<MIXTURE> 1 9.500000e-01
<MEAN> 1
 5.330371e+00
<VARIANCE> 1
 1.656603e-02
<GCONST> -2.262524e+00
<MIXTURE> 2 5.000000e-02
<MEAN> 0
<VARIANCE> 0
<GCONST> 0.000000e+00
<STREAM> 3
<NUMMIXES> 2
<MIXTURE> 1 9.428544e-01
<MEAN> 1
 -8.068344e-03
<VARIANCE> 1
 1.314100e-03
<GCONST> -4.796726e+00
<MIXTURE> 2 5.714558e-02
<MEAN> 0
<VARIANCE> 0
<GCONST> 0.000000e+00
<STREAM> 4
<NUMMIXES> 2
<MIXTURE> 1 9.428544e-01
<MEAN> 1
 3.448446e-03
<VARIANCE> 1
 2.645052e-03
<GCONST> -4.097187e+00
<MIXTURE> 2 5.714557e-02
<MEAN> 0
<VARIANCE> 0
<GCONST> 0.000000e+00
<TRANSP> 7
 0.000000e+00 1.000000e+00 0.000000e+00 0.000000e+00 0.000000e+00 0.000000e+00 0.000000e+00
 0.000000e+00 0.000000e+00 1.000000e+00 0.000000e+00 0.000000e+00 0.000000e+00 0.000000e+00
 0.000000e+00 0.000000e+00 0.000000e+00 1.000000e+00 0.000000e+00 0.000000e+00 0.000000e+00
 0.000000e+00 0.000000e+00 0.000000e+00 0.000000e+00 1.000000e+00 0.000000e+00 0.000000e+00
 0.000000e+00 0.000000e+00 0.000000e+00 0.000000e+00 0.000000e+00 1.000000e+00 0.000000e+00
 0.000000e+00 0.000000e+00 0.000000e+00 0.000000e+00 0.000000e+00 0.000000e+00 1.000000e+00
 0.000000e+00 0.000000e+00 0.000000e+00 0.000000e+00 0.000000e+00 0.000000e+00 0.000000e+00
<ENDHMM>
~h "h"
<BEGINHMM>
<NUMSTATES> 7
<STATE> 2
<STREAM> 1
<MEAN> 75
 5.504179e+00 1.885778e+00 4.712052e-01 -1.907865e-02 -2.499825e-01 4.400869e-02 -1.321876e-01 -2.656467e-01 -2.182347e-01 -1.454916e-01 -1.892612e-01 -5.256653e-03 -2.096480e-01 -5.870475e-02 -1.359132e-01 -1.826520e-01 -2.053895e-01 -1.518390e-01 -2.592176e-01 -1.311778e-01 -1.497927e-01 9.705095e-02 1.871021e-01 2.102664e-01 3.803286e-01 1.928415e-02 3.444410e-02 -2.557610e-03 -1.975478e-02 -1.821794e-02 -1.855964e-02 2.143653e-02 7.188683e-03 1.898778e-03 9.804083e-04 4.040627e-03 1.936526e-03 5.612999e-03 -5.185773e-03 -4.292534e-03 1.076560e-02 2.639884e-03 1.214683e-02 -8.941932e-03 -3.600338e-03 -7.520131e-03 -1.258914e-02 -8.920494e-03 -1.769692e-02 -8.187489e-03 6.900750e-03 -6.369870e-03 -1.023539e-03 3.581913e-03 2.751264e-03 -2.044717e-04 1.160938e-03 4.131136e-03 -1.074695e-05 -1.131957e-03 -2.756665e-03 -4.121518e-03 3.345916e-03 -3.659216e-04 -2.243346e-03 4.772244e-04 1.073192e-03 5.549603e-04 2.464689e-03 4.852946e-03 4.894247e-03 -1.519667e-03 -1.763427e-03 -3.062715e-03 -4.925116e-03
<VARIANCE> 75
 1.199518e+00 1.753442e-01 1.705273e-01 1.932976e-01 9.650169e-02 8.540256e-02 3.094689e-02 3.353599e-02 2.898337e-02 1.314411e-02 1.708606e-02 9.766343e-03 9.870458e-03 8.918213e-03 1.039870e-02 1.394323e-02 8.790742e-03 2.887193e-02 6.405191e-03 1.996139e-02 6.400420e-03 3.241523e-02 5.155779e-02 5.999998e-02 8.774424e-02 7.374691e-02 1.745812e-02 1.368226e-02 1.451115e-02 9.830568e-03 1.116301e-02 5.455396e-03 1.920020e-03 4.539581e-03 3.877567e-03 3.490631e-03 3.487564e-03 2.723918e-03 2.744275e-03 2.385747e-03 1.902866e-03 2.459418e-03 4.258749e-03 1.247590e-03 3.955743e-03 1.156205e-03 2.167565e-03 3.069284e-03 1.221120e-03 3.677132e-03 4.215873e-02 4.045676e-02 2.022051e-02 1.262960e-02 1.128309e-02 1.030961e-02 9.035731e-03 1.033754e-02 6.158853e-03 8.681249e-03 7.199649e-03 6.042919e-03 9.137483e-03 5.668196e-03 7.939525e-03 4.848006e-03 4.954637e-03 7.219069e-03 2.690043e-03 8.038726e-03 4.034457e-03 5.710653e-03 5.400815e-03 5.320292e-03 6.607507e-03
<GCONST> -2.043318e+02
<STREAM> 2
<NUMMIXES> 2
<MIXTURE> 1 9.500000e-01
<MEAN> 1
 5.521865e+00
<VARIANCE> 1
 1.423611e-02
<GCONST> -2.414097e+00
<MIXTURE> 2 5.000000e-02
<MEAN> 0
<VARIANCE> 0
<GCONST> 0.000000e+00
<STREAM> 3
<NUMMIXES> 2
<MIXTURE> 1 9.500000e-01
<MEAN> 1
 -6.282779e-03
<VARIANCE> 1
 7.254231e-04
<GCONST> -5.390879e+00
<MIXTURE> 2 5.000000e-02
<MEAN> 0
<VARIANCE> 0
<GCONST> 0.000000e+00
<STREAM> 4
<NUMMIXES> 2
<MIXTURE> 1 9.500000e-01
<MEAN> 1
 -7.223748e-04
<VARIANCE> 1
 1.345762e-03
<GCONST> -4.772918e+00
<MIXTURE> 2 5.000000e-02
<MEAN> 0
<VARIANCE> 0
<GCONST> 0.000000e+00
<STATE> 3
<STREAM> 1
<MEAN> 75
 6.125871e+00 1.991054e+00 4.166932e-01 -5.391265e-02 -4.301448e-01 -9.513592e-02 2.020384e-01 -3.378164e-01 -5.828698e-02 -2.249595e-01 -2.785082e-01 -2.119864e-02 -3.017123e-01 -8.003671e-04 -2.924158e-01 -8.111996e-02 -2.058837e-01 1.889022e-02 -2.840509e-01 -1.175091e-01 -1.777204e-01 -1.739638e-01 3.540231e-02 -9.763813e-02 -3.937737e-02 -5.914345e-02 1.027568e-03 1.813720e-02 1.325449e-02 1.253926e-02 1.253330e-03 -6.291379e-03 -8.098133e-04 9.900869e-04 -4.208888e-03 -3.343652e-03 4.858732e-04 -8.045258e-03 -2.397524e-03 6.246645e-03 -1.905101e-03 2.803721e-03 -9.555920e-03 8.589321e-03 -3.647398e-05 1.152603e-02 4.989643e-03 2.506855e-03 2.991211e-03 -7.419184e-04 -6.566443e-03 3.796896e-03 5.317250e-03 1.582484e-03 1.278570e-03 -1.941671e-03 2.580653e-04 -1.878810e-03 2.499874e-03 1.759819e-03 -3.674073e-04 -7.220765e-05 9.203509e-05 2.346275e-04 3.327884e-03 3.254322e-03 1.591911e-03 1.674089e-03 1.365954e-03 -1.828254e-04 1.037185e-03 3.196282e-03 3.586615e-04 1.694216e-03 1.017060e-04
<VARIANCE> 75
 1.008343e+00 1.165586e-02 1.915537e-01 8.562118e-02 4.525787e-02 3.143393e-02 5.877341e-02 1.214732e-02 2.140822e-02 1.148615e-02 2.952534e-02 1.112400e-02 1.133217e-02 2.610877e-02 2.809087e-02 3.136494e-02 4.872628e-02 3.411848e-02 1.333738e-02 4.765597e-03 3.863158e-02 1.516116e-02 1.167458e-02 1.039737e-02 3.019702e-02 4.661220e-03 3.117485e-03 2.938642e-03 2.684435e-03 2.238917e-03 2.040325e-03 2.325973e-03 3.204450e-03 1.770089e-03 2.675458e-03 3.220035e-03 1.166973e-03 2.733622e-03 2.447960e-03 3.171651e-03 2.261360e-03 3.988891e-03 2.007760e-03 2.123299e-03 1.060146e-03 4.428090e-03 2.889277e-03 3.003577e-03 2.513679e-03 2.269482e-03 3.589186e-03 6.414607e-03 3.225935e-03 6.189282e-03 4.099744e-03 4.237599e-03 3.418979e-03 6.385662e-03 3.095334e-03 3.621922e-03 3.592870e-03 2.842285e-03 5.642209e-03 4.244686e-03 4.572565e-03 4.225899e-03 2.812980e-03 2.450158e-03 3.094110e-03 2.875332e-03 4.356575e-03 5.912813e-03 4.088026e-03 3.710573e-03 2.863273e-03
<GCONST> -2.400307e+02
<STREAM> 2
<NUMMIXES> 2
<MIXTURE> 1 9.500000e-01
<MEAN> 1
 5.321324e+00
<VARIANCE> 1
 1.883814e-02
<GCONST> -2.133994e+00
<MIXTURE> 2 5.000000e-02
<MEAN> 0
<VARIANCE> 0
<GCONST> 0.000000e+00
<STREAM> 3
<NUMMIXES> 2
<MIXTURE> 1 9.500000e-01
<MEAN> 1
 5.806697e-03
<VARIANCE> 1
 7.133503e-04
<GCONST> -5.407661e+00
<MIXTURE> 2 5.000000e-02
<MEAN> 0
<VARIANCE> 0
<GCONST> 0.000000e+00
<STREAM> 4
<NUMMIXES> 2
<MIXTURE> 1 9.500000e-01
<MEAN> 1
 1.812632e-03
<VARIANCE> 1
 1.743688e-04
<GCONST> -6.816461e+00
<MIXTURE> 2 5.000000e-02
<MEAN> 0
<VARIANCE> 0
<GCONST> 0.000000e+00
<STATE> 4
<STREAM> 1
<MEAN> 75
 4.340190e+00 1.591828e+00 4.887501e-01 -5.279891e-02 -7.279471e-02 -1.081234e-01 -7.196712e-02 -1.033760e-01 -9.164052e-02 -1.828189e-01 -1.909356e-01 -8.799124e-02 -1.382713e-01 -7.438615e-02 3.183763e-02 4.558355e-02 3.416270e-02 1.313363e-01 1.361564e-01 1.187922e-01 1.204685e-01 3.988130e-02 2.562436e-02 3.329139e-02 -3.021966e-02 -1.121664e-02 -2.397258e-02 -4.236227e-03 4.455192e-03 1.065011e-02 1.252486e-02 3.171412e-03 5.008747e-03 -1.421877e-04 -6.606596e-03 3.700471e-03 -3.980182e-03 7.423352e-03 3.027684e-03 -2.815750e-03 -1.227985e-03 -1.999046e-03 6.518675e-03 9.763996e-04 -1.154412e-03 -2.266275e-03 8.053835e-04 1.854995e-04 3.154800e-03 -7.791572e-03 1.000150e-02 2.687420e-04 -3.583014e-03 1.951919e-03 -3.067567e-03 8.010624e-04 -7.098658e-03 3.556468e-04 -3.515862e-03 -2.253974e-04 -3.978582e-04 -1.016291e-03 -3.142318e-03 -1.601287e-03 -3.516179e-03 -5.805972e-03 -4.807939e-03 -3.155126e-03 -4.186753e-03 -2.284483e-03 -2.544737e-03 -3.447398e-03 3.057507e-03 2.149385e-03 5.444099e-03
<VARIANCE> 75
 4.909656e-01 1.926001e-01 1.299005e-01 7.108341e-02 1.979574e-02 4.277311e-02 1.947773e-02 4.066967e-02 1.581649e-02 1.129107e-02 2.608195e-02 5.742737e-03 3.356570e-02 1.532624e-02 8.932608e-03 5.757163e-03 1.170937e-02 2.151248e-02 1.083722e-02 1.081774e-02 1.096165e-02 1.124864e-02 1.359213e-02 9.182484e-03 1.798523e-02 6.282209e-02 1.438044e-02 1.683267e-02 1.388509e-02 3.980661e-03 4.256232e-03 3.921116e-03 3.501170e-03 3.339052e-03 2.869506e-03 2.511158e-03 2.707421e-03 2.917115e-03 4.903066e-03 3.131390e-03 2.313694e-03 1.702537e-03 3.179328e-03 3.556412e-03 2.370749e-03 2.013961e-03 2.413031e-03 4.907154e-03 2.553018e-03 4.881187e-03 5.631068e-02 3.626936e-02 2.967411e-02 1.710756e-02 9.288394e-03 1.175557e-02 1.443491e-02 6.701927e-03 1.286537e-02 5.808977e-03 4.798482e-03 1.076542e-02 7.451407e-03 8.204118e-03 9.081464e-03 5.761755e-03 5.267430e-03 5.016310e-03 4.380644e-03 4.055453e-03 7.267806e-03 5.165501e-03 6.677180e-03 6.542061e-03 5.233639e-03
<GCONST> -2.123385e+02
<STREAM> 2
<NUMMIXES> 2
<MIXTURE> 1 6.111106e-01
<MEAN> 1
 5.877972e+00
<VARIANCE> 1
 1.118197e-02
<GCONST> -2.655576e+00
<MIXTURE> 2 3.888892e-01
<MEAN> 0
<VARIANCE> 0
<GCONST> 0.000000e+00
<STREAM> 3
<NUMMIXES> 2
<MIXTURE> 1 5.555563e-01
<MEAN> 1
 8.504943e-03
<VARIANCE> 1
 7.968633e-04
<GCONST> -5.296950e+00
<MIXTURE> 2 4.444439e-01
<MEAN> 0
<VARIANCE> 0
<GCONST> 0.000000e+00
<STREAM> 4
<NUMMIXES> 2
<MIXTURE> 1 5.555563e-01
<MEAN> 1
 -3.370681e-03
<VARIANCE> 1
 2.658613e-03
<GCONST> -4.092073e+00
<MIXTURE> 2 4.444441e-01
<MEAN> 0
<VARIANCE> 0
<GCONST> 0.000000e+00
<STATE> 5
<STREAM> 1
<MEAN> 75
 5.852160e+00 9.406458e-01 1.693780e-01 1.897536e-01 5.249179e-02 1.359236e-01 -3.540109e-01 -1.256798e-01 -2.050099e-01 -2.250382e-01 -2.745732e-01 -2.518271e-01 -2.903666e-01 -2.613358e-01 -1.192664e-01 -2.125696e-01 -1.471381e-01 5.157306e-02 -2.072401e-01 2.278968e-04 1.398004e-01 2.105468e-01 4.747239e-01 4.951379e-01 3.977750e-01 1.021842e-01 5.489021e-03 -5.366123e-02 -2.741183e-02 -1.571216e-02 2.060935e-02 7.001583e-03 -1.961967e-02 -7.508300e-04 8.009510e-03 -1.981651e-03 2.867668e-03 -5.488517e-03 -1.427150e-02 -4.308243e-04 -4.603227e-03 1.127736e-02 -6.102522e-03 -1.371456e-02 -1.078323e-02 -7.903973e-03 4.570582e-03 1.499195e-02 1.541299e-02 1.751052e-02 -1.699465e-02 -2.239778e-03 8.663323e-03 -9.560960e-03 -1.352141e-03 4.699451e-04 1.548522e-02 -3.991472e-04 4.287334e-03 -6.191209e-03 5.395932e-03 9.795696e-03 6.366331e-03 -3.010743e-04 2.458645e-03 -2.780142e-05 7.490561e-03 1.059487e-02 3.716718e-03 -2.055838e-03 -1.738479e-03 4.491330e-03 -5.965537e-03 -6.186268e-03 -5.501561e-03
<VARIANCE> 75
 5.319831e-01 5.926405e-02 2.787716e-01 3.704733e-02 3.007099e-02 5.426023e-02 2.858234e-02 3.526367e-02 3.911576e-03 2.313229e-02 1.010776e-02 2.839122e-03 2.342803e-03 4.750431e-03 3.490750e-03 6.430688e-03 8.666008e-03 7.133871e-03 1.038133e-02 7.458410e-03 1.757429e-02 1.525157e-02 6.506098e-03 1.690827e-02 1.028850e-02 1.554576e-02 7.013753e-03 1.117261e-02 3.809565e-03 9.297452e-03 6.738469e-03 8.613544e-03 4.304246e-03 1.111629e-03 5.078763e-03 2.377962e-03 1.110508e-03 9.501260e-04 1.462606e-03 1.817218e-03 1.362558e-03 2.297089e-03 2.560941e-03 1.285117e-03 3.588564e-03 2.554045e-03 3.125921e-03 1.101331e-03 1.364131e-03 2.584352e-03 5.182452e-03 3.908679e-03 1.055498e-02 6.400577e-03 1.160763e-02 6.509067e-03 7.172151e-03 2.187408e-03 4.186708e-03 5.722633e-03 3.449995e-03 2.766821e-03 2.102533e-03 3.472975e-03 5.556206e-03 3.800861e-03 4.012095e-03 4.776239e-03 2.488674e-03 5.253044e-03 2.577584e-03 4.006036e-03 4.127856e-03 2.923470e-03 3.035460e-03
<GCONST> -2.487532e+02
<STREAM> 2
<NUMMIXES> 2
<MIXTURE> 1 9.500000e-01
<MEAN> 1
 5.685634e+00
<VARIANCE> 1
 4.829503e-04
<GCONST> -5.797720e+00
<MIXTURE> 2 5.000000e-02
<MEAN> 0
<VARIANCE> 0
<GCONST> 0.000000e+00
<STREAM> 3
<NUMMIXES> 2
<MIXTURE> 1 9.500000e-01
<MEAN> 1
 9.032823e-05
<VARIANCE> 1
 8.197612e-05
<GCONST> -7.571205e+00
<MIXTURE> 2 5.000000e-02
<MEAN> 0
<VARIANCE> 0
<GCONST> 0.000000e+00
<STREAM> 4
<NUMMIXES> 2
<MIXTURE> 1 9.500000e-01
<MEAN> 1
 9.414206e-04
<VARIANCE> 1
 1.260336e-04
<GCONST> -7.141085e+00
<MIXTURE> 2 5.000000e-02
<MEAN> 0
<VARIANCE> 0
<GCONST> 0.000000e+00
<STATE> 6
<STREAM> 1
<MEAN> 75
 5.739213e+00 1.762019e+00 3.776107e-01 -3.979562e-01 -3.043772e-01 1.977224e-01 8.310784e-02 -3.487204e-01 -1.438887e-01 -3.414406e-01 -3.211188e-01 -1.262498e-02 -3.045567e-01 -1.787304e-01 -1.860495e-01 -1.869482e-01 -5.144279e-02 -1.088125e-01 -1.365876e-01 -2.109631e-01 -1.350267e-01 1.079526e-01 2.672659e-01 4.179685e-01 4.378482e-01 -2.443422e-02 -4.552764e-02 4.355308e-02 2.733430e-02 5.584887e-03 -5.800262e-03 -1.165670e-02 1.625930e-02 7.214287e-03 -1.421675e-03 5.236172e-04 8.704481e-03 5.572684e-03 1.138228e-02 2.033151e-03 2.474744e-03 -6.274628e-03 -4.433522e-03 -2.087177e-03 -4.154097e-03 -6.520410e-03 -1.648058e-02 -1.807958e-02 -1.602083e-02 -5.246248e-03 -4.255255e-03 -6.705246e-03 -2.523925e-03 4.058835e-03 -2.025398e-04 -6.854213e-03 -1.076306e-03 1.310846e-02 1.952311e-03 6.584168e-04 -1.461794e-03 -3.450152e-03 1.135844e-03 4.127473e-03 -3.134985e-03 3.412907e-03 -1.327562e-03 -5.946967e-03 -3.456197e-03 -1.990855e-03 6.630590e-04 3.793485e-04 9.992531e-04 1.603362e-03 -4.669832e-04
<VARIANCE> 75
 4.220775e-02 3.617961e-01 7.059591e-02 1.554262e-01 4.675153e-02 7.911988e-02 5.715306e-02 7.814758e-03 1.829672e-02 7.615075e-03 7.085982e-03 7.496911e-03 2.822367e-02 1.551636e-02 2.116350e-02 6.253676e-03 9.985195e-03 1.930283e-02 1.841322e-02 1.082745e-02 1.034793e-02 2.409566e-02 1.498413e-02 2.785507e-02 2.006253e-02 5.885645e-03 2.933669e-02 4.238723e-03 8.095006e-03 3.108662e-03 6.673832e-03 7.338663e-03 3.242872e-03 3.371577e-03 1.518608e-03 2.767064e-03 2.264876e-03 7.407762e-03 2.177902e-03 3.578411e-03 3.165635e-03 1.353782e-03 4.449889e-03 2.973082e-03 1.580898e-03 2.196213e-03 1.799012e-03 1.674356e-03 2.650919e-03 2.112773e-03 3.001920e-02 1.806965e-02 1.216112e-02 1.992913e-02 4.589668e-03 8.770102e-03 1.134310e-02 1.444788e-02 4.350912e-03 3.540633e-03 8.804399e-03 7.898257e-03 1.041681e-02 4.157314e-03 5.176996e-03 7.732174e-03 3.349799e-03 7.097036e-03 7.341748e-03 4.696432e-03 6.333305e-03 2.738985e-03 4.389612e-03 6.901948e-03 8.618306e-03
<GCONST> -2.213375e+02
<STREAM> 2
<NUMMIXES> 2
<MIXTURE> 1 9.500000e-01
<MEAN> 1
 5.598115e+00
<VARIANCE> 1
 5.456690e-03
<GCONST> -3.373036e+00
<MIXTURE> 2 5.000000e-02
<MEAN> 0
<VARIANCE> 0
<GCONST> 0.000000e+00
<STREAM> 3
<NUMMIXES> 2
<MIXTURE> 1 9.500000e-01
<MEAN> 1
 -8.070593e-03
<VARIANCE> 1
 2.241723e-04
<GCONST> -6.565219e+00
<MIXTURE> 2 5.000000e-02
<MEAN> 0
<VARIANCE> 0
<GCONST> 0.000000e+00
<STREAM> 4
<NUMMIXES> 2
<MIXTURE> 1 9.500000e-01
<MEAN> 1
 1.142540e-03
<VARIANCE> 1
 3.115193e-04
<GCONST> -6.236172e+00
<MIXTURE> 2 5.000000e-02
<MEAN> 0
<VARIANCE> 0
<GCONST> 0.000000e+00
<TRANSP> 7
 0.000000e+00 1.000000e+00 0.000000e+00 0.000000e+00 0.000000e+00 0.000000e+00 0.000000e+00
 0.000000e+00 0.000000e+00 1.000000e+00 0.000000e+00 0.000000e+00 0.000000e+00 0.000000e+00
 0.000000e+00 0.000000e+00 0.000000e+00 1.000000e+00 0.000000e+00 0.000000e+00 0.000000e+00
 0.000000e+00 0.000000e+00 0.000000e+00 0.000000e+00 1.000000e+00 0.000000e+00 0.000000e+00
 0.000000e+00 0.000000e+00 0.000000e+00 0.000000e+00 0.000000e+00 1.000000e+00 0.000000e+00
 0.000000e+00 0.000000e+00 0.000000e+00 0.000000e+00 0.000000e+00 0.000000e+00 1.000000e+00
 0.000000e+00 0.000000e+00 0.000000e+00 0.000000e+00 0.000000e+00 0.000000e+00 0.000000e+00
<ENDHMM>
~h "i"
<BEGINHMM>
<NUMSTATES> 7
<STATE> 2
<STREAM> 1
<MEAN> 75
 5.743939e+00 1.452072e+00 3.392513e-01 2.847775e-01 -4.448392e-02 -1.531508e-01 -2.913601e-01 -1.428297e-02 -2.511311e-01 -2.689930e-01 -2.217490e-01 -2.110018e-01 -1.265601e-01 -1.957278e-01 -1.603298e-01 -2.481764e-02 -1.434236e-01 1.081603e-01 -1.341190e-01 -2.721825e-02 -7.689814e-02 1.033129e-01 1.526910e-01 3.301777e-01 8.106684e-02 1.279654e-01 -1.393462e-02 -1.153478e-02 2.865565e-02 -9.913606e-04 -4.450938e-02 -4.200820e-02 -8.497886e-03 -1.229421e-02 -5.301201e-03 1.838075e-02 -3.510898e-02 9.416272e-03 -8.523046e-03 -1.289563e-02 -5.415536e-03 -2.670644e-02 2.125905e-03 -5.470594e-03 -8.483675e-03 -7.809853e-03 9.248836e-03 8.875180e-03 3.236011e-02 2.321955e-02 -1.274702e-02 -7.705607e-02 -1.625818e-02 -4.299866e-03 -1.054049e-02 1.509586e-02 -3.731200e-03 5.296169e-03 -4.117506e-04 1.693287e-02 4.151894e-03 -8.273029e-04 2.284267e-02 1.120356e-02 -4.216431e-03 3.651257e-03 -1.521953e-03 5.817846e-03 -6.960376e-03 1.613622e-03 3.372994e-03 4.935533e-03 1.192651e-02 1.455527e-02 8.600804e-03
<VARIANCE> 75
 4.485277e-01 3.904535e-01 2.179494e-01 2.694735e-01 5.181798e-02 7.914916e-02 8.309729e-02 4.357595e-02 4.944834e-02 4.667327e-02 1.649859e-02 1.736838e-02 1.504620e-02 1.135890e-02 2.465382e-02 2.105059e-02 1.458534e-02 1.066640e-02 2.279514e-02 2.732568e-02 2.148489e-02 2.047449e-02 4.833555e-02 7.030524e-02 5.194277e-02 8.065408e-02 3.183385e-02 1.535844e-02 9.627436e-03 1.022876e-02 2.184086e-02 8.795652e-03 3.368206e-03 6.757851e-03 8.906163e-03 4.532490e-03 4.370936e-03 5.051127e-03 3.366571e-03 5.111618e-03 3.919385e-03 3.496065e-03 2.751383e-03 3.000586e-03 2.265982e-03 4.887158e-03 3.895881e-03 6.167698e-03 9.535782e-03 5.237296e-03 3.532977e-02 2.427325e-02 2.392422e-02 1.528401e-02 1.569552e-02 1.828067e-02 1.554612e-02 1.038380e-02 8.301842e-03 1.208499e-02 1.029699e-02 7.664180e-03 7.752676e-03 8.624741e-03 1.125558e-02 5.190037e-03 8.250849e-03 8.141237e-03 6.342932e-03 8.133107e-03 8.057798e-03 5.406032e-03 9.348099e-03 9.961505e-03 9.166957e-03
<GCONST> -1.794921e+02
<STREAM> 2
<NUMMIXES> 2
<MIXTURE> 1 9.017105e-01
<MEAN> 1
 5.612134e+00
<VARIANCE> 1
 1.587130e-02
<GCONST> -2.305366e+00
<MIXTURE> 2 9.828957e-02
<MEAN> 0
<VARIANCE> 0
<GCONST> 0.000000e+00
<STREAM> 3
<NUMMIXES> 2
<MIXTURE> 1 8.198037e-01
<MEAN> 1
 -1.959479e-03
<VARIANCE> 1
 2.001904e-03
<GCONST> -4.375779e+00
<MIXTURE> 2 1.801963e-01
<MEAN> 0
<VARIANCE> 0
<GCONST> 0.000000e+00
<STREAM> 4
<NUMMIXES> 2
<MIXTURE> 1 8.198036e-01
<MEAN> 1
 2.352871e-03
<VARIANCE> 1
 3.589584e-03
<GCONST> -3.791842e+00
<MIXTURE> 2 1.801963e-01
<MEAN> 0
<VARIANCE> 0
<GCONST> 0.000000e+00
<STATE> 3
<STREAM> 1
<MEAN> 75
 6.290057e+00 8.264958e-01 8.481741e-02 3.201879e-01 -1.286931e-01 -1.855152e-01 -4.189750e-01 1.021617e-01 -2.643229e-01 -2.010899e-01 -2.215388e-01 -3.507255e-01 -8.705363e-02 -1.965972e-01 -1.609263e-01 -5.095789e-02 -1.896894e-01 1.346393e-01 -6.794780e-02 1.618211e-01 1.489252e-01 3.932443e-01 3.653302e-01 3.721168e-01 -4.876124e-02 -1.259803e-02 -2.555951e-02 7.560036e-03 -5.312691e-03 2.452822e-03 -8.031913e-03 8.565485e-03 7.748425e-03 -9.117335e-03 -2.649595e-03 8.500344e-03 -3.048343e-03 -1.657889e-03 4.859255e-03 -5.371028e-04 -3.441452e-03 -1.792202e-03 -3.712554e-03 -4.473224e-03 -1.949202e-03 -5.301037e-03 4.094840e-03 7.438510e-03 4.014506e-03 9.273541e-03 -8.012303e-03 1.725386e-02 1.154833e-02 -8.656780e-03 -3.972508e-03 -2.378466e-03 2.524938e-03 -9.453738e-04 -4.054183e-04 2.296333e-03 -1.524298e-03 9.100408e-03 -7.648838e-03 3.063977e-03 4.843418e-03 1.408789e-03 1.352589e-03 -3.698406e-03 -1.130431e-03 6.233788e-04 -8.691874e-04 -1.109839e-02 -1.254191e-02 -1.123742e-02 -3.393070e-03
<VARIANCE> 75
 7.141502e-01 3.837776e-01 3.464043e-01 1.281910e-01 4.743398e-02 7.141828e-02 4.665914e-02 6.407643e-02 4.321487e-02 1.947690e-02 1.671683e-02 1.606746e-02 1.307939e-02 8.810104e-03 1.505605e-02 2.249836e-02 1.332892e-02 1.781466e-02 2.010418e-02 4.234699e-02 9.603792e-02 4.403066e-02 3.599044e-02 9.793845e-02 9.248352e-02 1.704454e-02 1.074358e-02 5.275895e-03 4.678165e-03 3.198787e-03 3.227830e-03 2.938807e-03 3.072727e-03 2.605384e-03 2.829846e-03 1.790071e-03 2.697586e-03 1.487941e-03 2.089886e-03 2.476574e-03 2.036874e-03 2.142461e-03 2.847194e-03 2.296636e-03 3.174330e-03 2.860280e-03 2.296643e-03 2.304564e-03 4.262309e-03 3.763250e-03 9.716153e-03 1.400161e-02 1.078793e-02 1.735949e-02 1.097682e-02 7.312158e-03 7.438831e-03 6.043066e-03 8.176786e-03 6.695572e-03 3.011683e-03 4.717870e-03 5.657415e-03 4.504468e-03 5.960966e-03 4.707498e-03 5.290028e-03 6.224140e-03 4.328119e-03 5.326796e-03 8.602298e-03 6.436414e-03 4.681646e-03 8.960591e-03 6.028232e-03
<GCONST> -2.084176e+02
<STREAM> 2
<NUMMIXES> 2
<MIXTURE> 1 9.500000e-01
<MEAN> 1
 5.720299e+00
<VARIANCE> 1
 8.413968e-03
<GCONST> -2.939985e+00
<MIXTURE> 2 5.000000e-02
<MEAN> 0
<VARIANCE> 0
<GCONST> 0.000000e+00
<STREAM> 3
<NUMMIXES> 2
<MIXTURE> 1 9.500000e-01
<MEAN> 1
 -1.794759e-03
<VARIANCE> 1
 1.796226e-04
<GCONST> -6.786775e+00
<MIXTURE> 2 5.000000e-02
<MEAN> 0
<VARIANCE> 0
<GCONST> 0.000000e+00
<STREAM> 4
<NUMMIXES> 2
<MIXTURE> 1 9.500000e-01
<MEAN> 1
 -1.814561e-04
<VARIANCE> 1
 7.154632e-05
<GCONST> -7.707288e+00
<MIXTURE> 2 5.000000e-02
<MEAN> 0
<VARIANCE> 0
<GCONST> 0.000000e+00
<STATE> 4
<STREAM> 1
<MEAN> 75
 6.148778e+00 1.229937e+00 2.945436e-01 2.977608e-01 -1.848939e-01 -1.757364e-01 -3.980478e-01 -2.022174e-02 -2.957250e-01 -2.179895e-01 -8.087330e-02 -2.871730e-01 -1.599810e-01 -1.049754e-01 -2.265033e-01 -8.954372e-02 -1.388547e-01 1.901009e-02 -1.315824e-01 -3.155128e-02 -1.205530e-01 2.565342e-01 2.748546e-01 4.504337e-01 1.158712e-01 9.740848e-03 3.752161e-02 4.028937e-02 -7.887792e-03 -2.107962e-02 -2.098460e-03 -1.377812e-03 -1.685718e-02 1.842342e-04 1.430515e-02 6.321963e-03 5.095778e-03 1.188206e-03 3.521447e-03 -9.031123e-03 -3.777477e-03 -9.473404e-04 -1.164192e-02 -4.298802e-03 -3.607814e-04 -1.037764e-02 -1.702337e-02 -2.685155e-02 -2.712645e-02 -2.374111e-02 -2.958751e-02 1.619599e-02 2.967460e-02 2.756721e-02 9.632757e-03 3.772211e-03 -7.198150e-03 -4.621822e-03 1.095304e-02 -2.585246e-03 -4.801648e-03 4.391963e-03 2.379441e-03 -3.906851e-03 -6.804618e-03 -3.962283e-03 4.938654e-03 8.802589e-04 1.339777e-02 4.297786e-03 1.212330e-05 -9.804228e-04 -4.804836e-03 -1.519347e-02 -2.448512e-02
<VARIANCE> 75
 9.870523e-01 3.332680e-01 2.356220e-01 1.726844e-01 6.422084e-02 6.964853e-02 9.377804e-02 3.060874e-02 5.087937e-02 2.126466e-02 2.177688e-02 2.328944e-02 2.474191e-02 2.772058e-02 1.223658e-02 1.928493e-02 2.476438e-02 1.787086e-02 2.447678e-02 1.918115e-02 3.271709e-02 4.678852e-02 3.317660e-02 9.379742e-02 4.750993e-02 4.087558e-02 1.214743e-02 1.344130e-02 1.154289e-02 4.771287e-03 5.194999e-03 8.457743e-03 2.770798e-03 3.466709e-03 3.792327e-03 2.402453e-03 4.322808e-03 3.690853e-03 3.227224e-03 2.480221e-03 2.487243e-03 4.470709e-03 2.447698e-03 3.472766e-03 2.481175e-03 2.530758e-03 3.868974e-03 3.208720e-03 6.233001e-03 4.397810e-03 3.476307e-02 3.105076e-02 1.644758e-02 1.572835e-02 1.079293e-02 7.846381e-03 9.068137e-03 7.649281e-03 7.577897e-03 7.585524e-03 3.635905e-03 7.568110e-03 7.562885e-03 4.416013e-03 3.889991e-03 4.567671e-03 5.915037e-03 5.611740e-03 7.479644e-03 8.677772e-03 4.923585e-03 6.319164e-03 7.342303e-03 1.067762e-02 9.406638e-03
<GCONST> -1.930427e+02
<STREAM> 2
<NUMMIXES> 2
<MIXTURE> 1 9.500000e-01
<MEAN> 1
 5.629628e+00
<VARIANCE> 1
 7.778632e-03
<GCONST> -3.018498e+00
<MIXTURE> 2 5.000000e-02
<MEAN> 0
<VARIANCE> 0
<GCONST> 0.000000e+00
<STREAM> 3
<NUMMIXES> 2
<MIXTURE> 1 9.500000e-01
<MEAN> 1
 -7.038277e-03
<VARIANCE> 1
 6.165206e-04
<GCONST> -5.553542e+00
<MIXTURE> 2 5.000000e-02
<MEAN> 0
<VARIANCE> 0
<GCONST> 0.000000e+00
<STREAM> 4
<NUMMIXES> 2
<MIXTURE> 1 9.500000e-01
<MEAN> 1
 -1.873821e-03
<VARIANCE> 1
 1.516482e-03
<GCONST> -4.653485e+00
<MIXTURE> 2 5.000000e-02
<MEAN> 0
<VARIANCE> 0
<GCONST> 0.000000e+00
<STATE> 5
<STREAM> 1
<MEAN> 75
 5.912273e+00 1.285092e+00 9.293434e-01 6.208393e-01 -1.320085e-01 -6.924164e-02 -2.672368e-01 -5.269334e-02 -3.690215e-01 -1.794266e-01 -1.295942e-01 -3.485431e-01 -1.864935e-01 -9.929352e-02 -3.670686e-01 -1.187683e-02 -1.739164e-01 -5.557592e-02 -1.351934e-01 -8.672207e-02 -1.899097e-01 -8.395351e-03 -6.456728e-02 8.834327e-02 -1.475894e-01 -8.477540e-02 6.197089e-02 1.492206e-02 -1.214596e-02 8.009858e-03 1.590105e-02 1.959611e-03 -9.496811e-03 1.000781e-02 5.036870e-03 -1.015633e-02 7.347495e-03 -8.799698e-03 -2.766365e-03 -4.720749e-03 -7.592899e-03 7.555245e-03 -2.998022e-03 1.309162e-02 -2.009681e-03 1.404757e-03 -6.246102e-03 -9.428993e-03 -1.154588e-02 -4.878284e-03 -2.913134e-03 -5.675572e-03 -2.486789e-02 -1.255898e-02 1.867238e-03 -2.322567e-04 1.549044e-03 -1.191638e-03 -1.923199e-04 -4.069183e-03 -4.398350e-03 -2.336344e-03 -3.316778e-03 -2.828373e-03 4.616338e-03 2.948107e-04 1.615838e-03 2.687427e-04 -1.956412e-03 -1.845560e-03 2.694925e-03 2.505430e-03 1.677164e-03 6.453952e-03 1.489233e-02
<VARIANCE> 75
 4.199609e-01 4.105403e-01 5.498584e-02 1.131276e-01 5.500684e-02 6.169792e-02 2.021800e-02 1.515730e-02 3.184683e-02 1.461059e-02 1.720927e-02 1.299604e-02 1.512885e-02 1.238188e-02 2.467852e-02 1.348705e-02 2.655369e-02 1.982456e-02 1.529650e-02 1.702163e-02 1.835060e-02 1.165774e-02 1.729901e-02 2.526288e-02 2.155223e-02 1.207369e-02 1.225062e-02 3.991643e-03 4.421808e-03 2.167402e-03 4.185776e-03 2.998551e-03 1.579737e-03 1.636346e-03 1.438074e-03 1.473139e-03 1.370954e-03 2.115757e-03 1.779678e-03 1.924465e-03 1.667626e-03 2.000241e-03 1.845366e-03 1.378398e-03 1.547070e-03 1.766833e-03 2.121095e-03 1.885253e-03 2.464686e-03 2.860554e-03 6.991182e-03 8.314056e-03 8.679139e-03 7.596597e-03 3.816919e-03 5.775594e-03 3.768377e-03 4.288718e-03 3.913919e-03 3.528108e-03 2.898024e-03 3.625765e-03 3.053098e-03 3.977685e-03 3.886848e-03 2.563379e-03 3.000560e-03 3.357881e-03 2.729456e-03 3.236197e-03 3.002867e-03 4.138161e-03 3.291601e-03 4.863584e-03 3.849887e-03
<GCONST> -2.399755e+02
<STREAM> 2
<NUMMIXES> 2
<MIXTURE> 1 9.500000e-01
<MEAN> 1
 5.446987e+00
<VARIANCE> 1
 1.484513e-02
<GCONST> -2.372206e+00
<MIXTURE> 2 5.000000e-02
<MEAN> 0
<VARIANCE> 0
<GCONST> 0.000000e+00
<STREAM> 3
<NUMMIXES> 2
<MIXTURE> 1 9.500000e-01
<MEAN> 1
 -4.941168e-03
<VARIANCE> 1
 5.116091e-04
<GCONST> -5.740072e+00
<MIXTURE> 2 5.000000e-02
<MEAN> 0
<VARIANCE> 0
<GCONST> 0.000000e+00
<STREAM> 4
<NUMMIXES> 2
<MIXTURE> 1 9.500000e-01
<MEAN> 1
 1.047864e-03
<VARIANCE> 1
 5.948331e-04
<GCONST> -5.589353e+00
<MIXTURE> 2 5.000000e-02
<MEAN> 0
<VARIANCE> 0
<GCONST> 0.000000e+00
<STATE> 6
<STREAM> 1
<MEAN> 75
 4.999152e+00 1.563279e+00 6.997602e-01 4.456974e-01 -1.721339e-01 -2.113853e-01 -3.213142e-01 -1.323138e-01 -2.805946e-01 -1.581692e-01 -2.135108e-01 -1.963012e-01 -1.976139e-01 -1.111075e-01 -1.413113e-01 3.249291e-02 5.914966e-02 1.688968e-01 9.914745e-02 5.822182e-02 -2.988374e-02 1.852048e-02 -4.858249e-02 1.050366e-01 -1.165193e-01 -1.254261e-01 1.833986e-02 -6.945151e-03 1.524574e-02 3.021378e-02 1.906777e-02 5.352473e-03 6.997801e-03 1.329292e-02 -3.135290e-03 9.401822e-03 1.022860e-02 -5.380903e-03 -1.794284e-04 1.425279e-02 1.275973e-02 1.077184e-02 -2.124876e-03 2.275877e-03 -1.659164e-02 -6.937716e-03 -1.673626e-02 -1.100811e-02 -1.763882e-02 6.024593e-03 -2.918807e-02 -1.743749e-03 1.750175e-02 5.426107e-03 1.550280e-02 1.252049e-02 1.060141e-02 1.018643e-02 2.551208e-03 8.951248e-03 1.329030e-02 -2.954286e-03 -1.255151e-03 -2.999293e-04 1.956211e-03 2.212080e-03 -3.094785e-03 -1.672872e-03 -8.434637e-03 -2.285443e-03 -2.236802e-03 5.434323e-03 6.604841e-03 -3.861869e-03 4.820643e-04
<VARIANCE> 75
 6.312373e-01 3.746551e-01 6.264310e-02 1.084109e-01 4.589114e-02 7.242648e-02 1.732832e-02 2.327999e-02 5.190667e-02 8.918751e-03 2.446399e-02 1.047539e-02 3.433491e-02 3.866346e-02 4.743912e-02 3.765557e-02 4.625050e-02 4.354458e-02 5.310094e-02 4.328766e-02 3.307366e-02 2.930509e-02 2.220403e-02 2.718249e-02 3.360099e-02 1.309241e-02 5.384448e-03 6.339787e-03 3.421799e-03 5.373005e-03 5.357808e-03 3.424005e-03 3.225227e-03 2.214624e-03 1.899552e-03 2.972958e-03 2.972814e-03 2.528500e-03 1.840548e-03 2.296187e-03 3.908983e-03 3.634224e-03 3.190178e-03 3.653052e-03 5.110980e-03 4.545476e-03 4.627399e-03 4.059383e-03 6.528729e-03 5.312371e-03 1.184291e-02 1.188131e-02 1.228952e-02 9.601370e-03 6.518208e-03 7.868524e-03 4.864349e-03 7.128089e-03 4.304113e-03 4.045152e-03 6.755155e-03 5.305496e-03 6.344429e-03 4.636049e-03 5.471922e-03 1.039769e-02 6.359892e-03 6.373219e-03 6.384628e-03 7.068741e-03 5.578215e-03 5.811734e-03 5.223819e-03 7.532429e-03 6.637544e-03
<GCONST> -2.050020e+02
<STREAM> 2
<NUMMIXES> 2
<MIXTURE> 1 9.314370e-01
<MEAN> 1
 5.617301e+00
<VARIANCE> 1
 1.175951e-01
<GCONST> -3.026307e-01
<MIXTURE> 2 6.856300e-02
<MEAN> 0
<VARIANCE> 0
<GCONST> 0.000000e+00
<STREAM> 3
<NUMMIXES> 2
<MIXTURE> 1 8.902994e-01
<MEAN> 1
 -1.077093e-02
<VARIANCE> 1
 4.632269e-03
<GCONST> -3.536832e+00
<MIXTURE> 2 1.097006e-01
<MEAN> 0
<VARIANCE> 0
<GCONST> 0.000000e+00
<STREAM> 4
<NUMMIXES> 2
<MIXTURE> 1 8.902994e-01
<MEAN> 1
 3.615186e-03
<VARIANCE> 1
 1.576781e-02
<GCONST> -2.311908e+00
<MIXTURE> 2 1.097006e-01
<MEAN> 0
<VARIANCE> 0
<GCONST> 0.000000e+00
<TRANSP> 7
 0.000000e+00 1.000000e+00 0.000000e+00 0.000000e+00 0.000000e+00 0.000000e+00 0.000000e+00
 0.000000e+00 0.000000e+00 1.000000e+00 0.000000e+00 0.000000e+00 0.000000e+00 0.000000e+00
 0.000000e+00 0.000000e+00 0.000000e+00 1.000000e+00 0.000000e+00 0.000000e+00 0.000000e+00
 0.000000e+00 0.000000e+00 0.000000e+00 0.000000e+00 1.000000e+00 0.000000e+00 0.000000e+00
 0.000000e+00 0.000000e+00 0.000000e+00 0.000000e+00 0.000000e+00 1.000000e+00 0.000000e+00
 0.000000e+00 0.000000e+00 0.000000e+00 0.000000e+00 0.000000e+00 0.000000e+00 1.000000e+00
 0.000000e+00 0.000000e+00 0.000000e+00 0.000000e+00 0.000000e+00 0.000000e+00 0.000000e+00
<ENDHMM>
~h "k"
<BEGINHMM>
<NUMSTATES> 7
<STATE> 2
<STREAM> 1
<MEAN> 75
 4.662599e+00 1.273115e+00 3.402815e-01 3.061720e-01 -3.087480e-02 3.338860e-02 -1.542754e-01 6.625873e-02 2.722538e-03 -5.039342e-02 -3.821316e-02 -1.165897e-01 -5.183281e-02 -2.596030e-02 -9.933132e-02 -2.195951e-02 -2.527408e-02 6.535901e-03 -8.319410e-02 -9.588334e-03 -2.219686e-02 1.557242e-02 -5.427241e-03 6.042767e-02 -1.128029e-01 4.972976e-01 -8.963773e-02 -2.652746e-02 -8.933366e-02 -1.258694e-01 1.642178e-02 -1.096450e-02 -3.487872e-02 9.040350e-03 -2.722923e-02 -2.414237e-02 -2.766222e-02 1.079427e-02 1.196926e-02 4.529343e-03 2.265889e-02 2.005303e-02 -1.027249e-02 -2.554054e-02 -1.088443e-02 -2.049402e-02 -2.250769e-03 -1.485109e-02 1.390468e-02 -2.252260e-02 7.969245e-02 2.055962e-02 3.346279e-02 1.214955e-03 4.030112e-03 -1.105462e-02 -8.627716e-03 4.897302e-03 -3.008759e-02 -1.353022e-02 -1.080007e-02 -1.067146e-02 -6.525096e-03 2.364755e-03 -1.332949e-02 9.962367e-03 3.655122e-03 7.238159e-03 2.257073e-02 4.005863e-03 -1.006532e-02 -1.218474e-02 -1.124121e-02 -1.468688e-02 5.848883e-04
<VARIANCE> 75
